<?xml version="1.0"?>
<opencv_storage>
<cascade>
  <stageType>BOOST</stageType>
  <featureType>HAAR</featureType>
  <height>24</height>
  <width>24</width>
  <stageParams>
    <boostType>GAB</boostType>
    <minHitRate>9.9900001287460327e-01</minHitRate>
    <maxFalseAlarm>2.5000000000000000e-01</maxFalseAlarm>
    <weightTrimRate>9.4999999999999996e-01</weightTrimRate>
    <maxDepth>1</maxDepth>
    <maxWeakCount>100</maxWeakCount></stageParams>
  <featureParams>
    <maxCatCount>0</maxCatCount>
    <featSize>1</featSize>
    <mode>BASIC</mode></featureParams>
  <stageNum>12</stageNum>
  <stages>
    <!-- stage 0 -->
    <_>
      <maxWeakCount>10</maxWeakCount>
      <stageThreshold>-2.4669466018676758e+00</stageThreshold>
      <weakClassifiers>
        <_>
          <internalNodes>
            0 -1 207 -8.4844768047332764e-02</internalNodes>
          <leafValues>
            -9.2239558696746826e-01 3.1895223259925842e-01</leafValues></_>
        <_>
          <internalNodes>
            0 -1 331 -8.0242574214935303e-02</internalNodes>
          <leafValues>
            -9.8638415336608887e-01 6.0496170073747635e-02</leafValues></_>
        <_>
          <internalNodes>
            0 -1 154 3.4949280321598053e-02</internalNodes>
          <leafValues>
            -6.8581843376159668e-01 4.2397606372833252e-01</leafValues></_>
        <_>
          <internalNodes>
            0 -1 20 -6.9590345025062561e-02</internalNodes>
          <leafValues>
            7.0859980583190918e-01 -4.4179809093475342e-01</leafValues></_>
        <_>
          <internalNodes>
            0 -1 296 -3.1227964907884598e-02</internalNodes>
          <leafValues>
            -9.8163706064224243e-01 2.5888663530349731e-01</leafValues></_>
        <_>
          <internalNodes>
            0 -1 453 6.2112800776958466e-02</internalNodes>
          <leafValues>
            -3.8895660638809204e-01 6.1173498630523682e-01</leafValues></_>
        <_>
          <internalNodes>
            0 -1 356 4.1751835495233536e-02</internalNodes>
          <leafValues>
            -2.0726135373115540e-01 5.6219518184661865e-01</leafValues></_>
        <_>
          <internalNodes>
            0 -1 423 -3.6236867308616638e-02</internalNodes>
          <leafValues>
            7.7836245298385620e-01 -1.3142292201519012e-01</leafValues></_>
        <_>
          <internalNodes>
            0 -1 183 -2.9030961915850639e-02</internalNodes>
          <leafValues>
            6.6493552923202515e-01 -1.3514573872089386e-01</leafValues></_>
        <_>
          <internalNodes>
            0 -1 202 -4.2350113391876221e-02</internalNodes>
          <leafValues>
            -9.1989237070083618e-01 1.2646937370300293e-01</leafValues></_></weakClassifiers></_>
    <!-- stage 1 -->
    <_>
      <maxWeakCount>16</maxWeakCount>
      <stageThreshold>-1.9718660116195679e+00</stageThreshold>
      <weakClassifiers>
        <_>
          <internalNodes>
            0 -1 29 -9.0146057307720184e-02</internalNodes>
          <leafValues>
            1.9553072750568390e-02 -8.6545139551162720e-01</leafValues></_>
        <_>
          <internalNodes>
            0 -1 92 6.3497126102447510e-02</internalNodes>
          <leafValues>
            -7.1760469675064087e-01 3.2670825719833374e-01</leafValues></_>
        <_>
          <internalNodes>
            0 -1 428 3.4390203654766083e-02</internalNodes>
          <leafValues>
            -5.8770030736923218e-01 3.4810650348663330e-01</leafValues></_>
        <_>
          <internalNodes>
            0 -1 530 -1.0979359969496727e-02</internalNodes>
          <leafValues>
            -8.6268228292465210e-01 1.3779467344284058e-01</leafValues></_>
        <_>
          <internalNodes>
            0 -1 3 -2.3928362131118774e-01</internalNodes>
          <leafValues>
            1.4141200482845306e-01 -8.7985986471176147e-01</leafValues></_>
        <_>
          <internalNodes>
            0 -1 235 -1.0825134813785553e-01</internalNodes>
          <leafValues>
            -6.8175756931304932e-01 1.4116667211055756e-01</leafValues></_>
        <_>
          <internalNodes>
            0 -1 47 -1.5063514001667500e-02</internalNodes>
          <leafValues>
            3.8486051559448242e-01 -3.0764150619506836e-01</leafValues></_>
        <_>
          <internalNodes>
            0 -1 304 9.9622178822755814e-03</internalNodes>
          <leafValues>
            -3.5653746128082275e-01 3.1841912865638733e-01</leafValues></_>
        <_>
          <internalNodes>
            0 -1 488 -3.7857715040445328e-02</internalNodes>
          <leafValues>
            9.0562880039215088e-02 -8.8580870628356934e-01</leafValues></_>
        <_>
          <internalNodes>
            0 -1 255 -2.8402887284755707e-02</internalNodes>
          <leafValues>
            -3.4954380989074707e-01 2.7603307366371155e-01</leafValues></_>
        <_>
          <internalNodes>
            0 -1 544 -1.3281906954944134e-02</internalNodes>
          <leafValues>
            1.6115003824234009e-01 -5.3184789419174194e-01</leafValues></_>
        <_>
          <internalNodes>
            0 -1 185 -4.6403631567955017e-02</internalNodes>
          <leafValues>
            5.7475280761718750e-01 -1.5922151505947113e-01</leafValues></_>
        <_>
          <internalNodes>
            0 -1 213 -1.0551386512815952e-02</internalNodes>
          <leafValues>
            -2.1705079078674316e-01 4.3257769942283630e-01</leafValues></_>
        <_>
          <internalNodes>
            0 -1 112 4.0146104991436005e-02</internalNodes>
          <leafValues>
            -1.1355640739202499e-01 7.2869610786437988e-01</leafValues></_>
        <_>
          <internalNodes>
            0 -1 420 -3.1051281839609146e-02</internalNodes>
          <leafValues>
            6.8298405408859253e-01 -1.0277427732944489e-01</leafValues></_>
        <_>
          <internalNodes>
            0 -1 55 -3.9316438138484955e-02</internalNodes>
          <leafValues>
            1.7776681482791901e-01 -4.3073156476020813e-01</leafValues></_></weakClassifiers></_>
    <!-- stage 2 -->
    <_>
      <maxWeakCount>28</maxWeakCount>
      <stageThreshold>-1.7466408014297485e+00</stageThreshold>
      <weakClassifiers>
        <_>
          <internalNodes>
            0 -1 258 -8.0948650836944580e-02</internalNodes>
          <leafValues>
            -8.3506083488464355e-01 -1.5855181217193604e-01</leafValues></_>
        <_>
          <internalNodes>
            0 -1 469 5.6843832135200500e-02</internalNodes>
          <leafValues>
            -4.5494869351387024e-01 2.7149811387062073e-01</leafValues></_>
        <_>
          <internalNodes>
            0 -1 34 -7.2527967393398285e-02</internalNodes>
          <leafValues>
            4.0350559353828430e-01 -2.9077199101448059e-01</leafValues></_>
        <_>
          <internalNodes>
            0 -1 312 -8.7072515487670898e-01</internalNodes>
          <leafValues>
            -7.8860753774642944e-01 1.5696188807487488e-01</leafValues></_>
        <_>
          <internalNodes>
            0 -1 122 3.1787365674972534e-02</internalNodes>
          <leafValues>
            -4.6951982378959656e-01 2.8712040185928345e-01</leafValues></_>
        <_>
          <internalNodes>
            0 -1 299 5.4713822901248932e-02</internalNodes>
          <leafValues>
            -2.0145125687122345e-01 4.4757848978042603e-01</leafValues></_>
        <_>
          <internalNodes>
            0 -1 120 -7.6255485415458679e-02</internalNodes>
          <leafValues>
            5.1061660051345825e-01 -2.1936021745204926e-01</leafValues></_>
        <_>
          <internalNodes>
            0 -1 43 -1.3097631931304932e-01</internalNodes>
          <leafValues>
            -8.1637197732925415e-01 1.4973133802413940e-01</leafValues></_>
        <_>
          <internalNodes>
            0 -1 559 -1.2886183336377144e-02</internalNodes>
          <leafValues>
            1.4200682938098907e-01 -5.2800053358078003e-01</leafValues></_>
        <_>
          <internalNodes>
            0 -1 75 7.7287688851356506e-02</internalNodes>
          <leafValues>
            7.9954348504543304e-02 -6.6311174631118774e-01</leafValues></_>
        <_>
          <internalNodes>
            0 -1 128 1.1799486819654703e-03</internalNodes>
          <leafValues>
            9.0514324605464935e-02 -7.8304702043533325e-01</leafValues></_>
        <_>
          <internalNodes>
            0 -1 173 -2.2838678210973740e-02</internalNodes>
          <leafValues>
            5.2545541524887085e-01 -1.4520774781703949e-01</leafValues></_>
        <_>
          <internalNodes>
            0 -1 195 -5.8047071099281311e-02</internalNodes>
          <leafValues>
            4.6657180786132813e-01 -1.3699169456958771e-01</leafValues></_>
        <_>
          <internalNodes>
            0 -1 211 -3.8483109325170517e-02</internalNodes>
          <leafValues>
            6.7141050100326538e-01 -9.8764114081859589e-02</leafValues></_>
        <_>
          <internalNodes>
            0 -1 547 -5.6326080812141299e-04</internalNodes>
          <leafValues>
            -7.6338118314743042e-01 9.3778245151042938e-02</leafValues></_>
        <_>
          <internalNodes>
            0 -1 541 2.8758522239513695e-04</internalNodes>
          <leafValues>
            1.1321112513542175e-01 -4.6618518233299255e-01</leafValues></_>
        <_>
          <internalNodes>
            0 -1 238 4.4732566922903061e-02</internalNodes>
          <leafValues>
            -9.7080148756504059e-02 6.5918046236038208e-01</leafValues></_>
        <_>
          <internalNodes>
            0 -1 217 -1.7764453589916229e-01</internalNodes>
          <leafValues>
            -3.9264118671417236e-01 1.5814469754695892e-01</leafValues></_>
        <_>
          <internalNodes>
            0 -1 242 -1.4169948175549507e-02</internalNodes>
          <leafValues>
            2.0034389197826385e-01 -3.7827154994010925e-01</leafValues></_>
        <_>
          <internalNodes>
            0 -1 197 -2.3549217730760574e-02</internalNodes>
          <leafValues>
            4.5412412285804749e-01 -1.7876072227954865e-01</leafValues></_>
        <_>
          <internalNodes>
            0 -1 511 2.8827741742134094e-02</internalNodes>
          <leafValues>
            -1.3512302935123444e-01 4.5402160286903381e-01</leafValues></_>
        <_>
          <internalNodes>
            0 -1 502 1.9215596839785576e-03</internalNodes>
          <leafValues>
            9.0080775320529938e-02 -7.2608858346939087e-01</leafValues></_>
        <_>
          <internalNodes>
            0 -1 480 -2.0652558654546738e-02</internalNodes>
          <leafValues>
            6.3113230466842651e-01 -1.0135268419981003e-01</leafValues></_>
        <_>
          <internalNodes>
            0 -1 281 -3.9326146245002747e-02</internalNodes>
          <leafValues>
            -5.1953041553497314e-01 1.1380995064973831e-01</leafValues></_>
        <_>
          <internalNodes>
            0 -1 60 -1.5041460283100605e-02</internalNodes>
          <leafValues>
            1.9643057882785797e-01 -2.9057076573371887e-01</leafValues></_>
        <_>
          <internalNodes>
            0 -1 370 -9.8893046379089355e-02</internalNodes>
          <leafValues>
            -1.4955316483974457e-01 3.8446336984634399e-01</leafValues></_>
        <_>
          <internalNodes>
            0 -1 529 -3.7594050168991089e-02</internalNodes>
          <leafValues>
            1.3194622099399567e-01 -4.6950504183769226e-01</leafValues></_>
        <_>
          <internalNodes>
            0 -1 219 3.3572014421224594e-02</internalNodes>
          <leafValues>
            6.0972295701503754e-02 -8.6733955144882202e-01</leafValues></_></weakClassifiers></_>
    <!-- stage 3 -->
    <_>
      <maxWeakCount>39</maxWeakCount>
      <stageThreshold>-1.6681979894638062e+00</stageThreshold>
      <weakClassifiers>
        <_>
          <internalNodes>
            0 -1 21 -1.3970915973186493e-01</internalNodes>
          <leafValues>
            -2.7363184094429016e-01 -7.9422384500503540e-01</leafValues></_>
        <_>
          <internalNodes>
            0 -1 400 5.2699446678161621e-02</internalNodes>
          <leafValues>
            -4.6697843074798584e-01 2.2214169800281525e-01</leafValues></_>
        <_>
          <internalNodes>
            0 -1 194 -3.0556155368685722e-02</internalNodes>
          <leafValues>
            3.4847339987754822e-01 -2.5315394997596741e-01</leafValues></_>
        <_>
          <internalNodes>
            0 -1 95 6.1950571835041046e-02</internalNodes>
          <leafValues>
            -2.8074827790260315e-01 2.5418144464492798e-01</leafValues></_>
        <_>
          <internalNodes>
            0 -1 212 -9.5728144049644470e-02</internalNodes>
          <leafValues>
            6.2252831459045410e-01 -8.2069836556911469e-02</leafValues></_>
        <_>
          <internalNodes>
            0 -1 205 -3.3219403028488159e-01</internalNodes>
          <leafValues>
            -3.9924350380897522e-01 1.9268025457859039e-01</leafValues></_>
        <_>
          <internalNodes>
            0 -1 329 5.6139238178730011e-02</internalNodes>
          <leafValues>
            -2.7022120356559753e-01 3.4167391061782837e-01</leafValues></_>
        <_>
          <internalNodes>
            0 -1 340 -2.9561538249254227e-03</internalNodes>
          <leafValues>
            8.4629535675048828e-02 -9.4087904691696167e-01</leafValues></_>
        <_>
          <internalNodes>
            0 -1 436 -3.0488066375255585e-02</internalNodes>
          <leafValues>
            5.7355684041976929e-01 -1.2120358645915985e-01</leafValues></_>
        <_>
          <internalNodes>
            0 -1 79 1.9359726458787918e-02</internalNodes>
          <leafValues>
            9.1440476477146149e-02 -6.5967828035354614e-01</leafValues></_>
        <_>
          <internalNodes>
            0 -1 57 -5.8258876204490662e-02</internalNodes>
          <leafValues>
            2.5820717215538025e-01 -1.9871617853641510e-01</leafValues></_>
        <_>
          <internalNodes>
            0 -1 206 1.1327400803565979e-02</internalNodes>
          <leafValues>
            -1.6716124117374420e-01 4.4802767038345337e-01</leafValues></_>
        <_>
          <internalNodes>
            0 -1 244 8.0300011904910207e-04</internalNodes>
          <leafValues>
            6.4828887581825256e-02 -8.2604271173477173e-01</leafValues></_>
        <_>
          <internalNodes>
            0 -1 285 -7.2204321622848511e-02</internalNodes>
          <leafValues>
            -1.3144612312316895e-01 4.2580682039260864e-01</leafValues></_>
        <_>
          <internalNodes>
            0 -1 65 -3.6546103656291962e-02</internalNodes>
          <leafValues>
            1.9785189628601074e-01 -3.3368945121765137e-01</leafValues></_>
        <_>
          <internalNodes>
            0 -1 15 -2.8529113531112671e-01</internalNodes>
          <leafValues>
            -7.3098134994506836e-01 5.5404882878065109e-02</leafValues></_>
        <_>
          <internalNodes>
            0 -1 383 -1.2376061640679836e-03</internalNodes>
          <leafValues>
            3.2931497693061829e-01 -1.5758025646209717e-01</leafValues></_>
        <_>
          <internalNodes>
            0 -1 168 -1.5573965013027191e-01</internalNodes>
          <leafValues>
            3.6635625362396240e-01 -1.4970645308494568e-01</leafValues></_>
        <_>
          <internalNodes>
            0 -1 506 3.0483815819025040e-02</internalNodes>
          <leafValues>
            -1.0784417390823364e-01 5.0170624256134033e-01</leafValues></_>
        <_>
          <internalNodes>
            0 -1 508 3.0750251607969403e-04</internalNodes>
          <leafValues>
            1.3865301012992859e-01 -4.8668229579925537e-01</leafValues></_>
        <_>
          <internalNodes>
            0 -1 283 2.9301682952791452e-03</internalNodes>
          <leafValues>
            -1.4479003846645355e-01 3.8256144523620605e-01</leafValues></_>
        <_>
          <internalNodes>
            0 -1 457 -1.0725399479269981e-02</internalNodes>
          <leafValues>
            -1.4090433716773987e-01 3.5478311777114868e-01</leafValues></_>
        <_>
          <internalNodes>
            0 -1 220 -7.9599902033805847e-02</internalNodes>
          <leafValues>
            7.1172930300235748e-02 -6.9812226295471191e-01</leafValues></_>
        <_>
          <internalNodes>
            0 -1 45 -2.9184978455305099e-02</internalNodes>
          <leafValues>
            5.2090549468994141e-01 -1.0787039250135422e-01</leafValues></_>
        <_>
          <internalNodes>
            0 -1 113 -1.2151365168392658e-02</internalNodes>
          <leafValues>
            -7.9450416564941406e-01 6.8763680756092072e-02</leafValues></_>
        <_>
          <internalNodes>
            0 -1 540 -8.2549056969583035e-04</internalNodes>
          <leafValues>
            -7.1072560548782349e-01 5.5773489177227020e-02</leafValues></_>
        <_>
          <internalNodes>
            0 -1 404 -1.1435141786932945e-02</internalNodes>
          <leafValues>
            3.5499110817909241e-01 -1.4336675405502319e-01</leafValues></_>
        <_>
          <internalNodes>
            0 -1 130 -3.5779393510892987e-04</internalNodes>
          <leafValues>
            -4.8331534862518311e-01 1.0964795947074890e-01</leafValues></_>
        <_>
          <internalNodes>
            0 -1 119 1.5526378527283669e-02</internalNodes>
          <leafValues>
            -1.0968131572008133e-01 4.7782254219055176e-01</leafValues></_>
        <_>
          <internalNodes>
            0 -1 546 7.2206783806905150e-04</internalNodes>
          <leafValues>
            1.0305963456630707e-01 -5.0965291261672974e-01</leafValues></_>
        <_>
          <internalNodes>
            0 -1 131 4.8020202666521072e-03</internalNodes>
          <leafValues>
            4.7132015228271484e-02 -7.9274272918701172e-01</leafValues></_>
        <_>
          <internalNodes>
            0 -1 266 5.3256805986166000e-03</internalNodes>
          <leafValues>
            5.0788186490535736e-02 -6.9271355867385864e-01</leafValues></_>
        <_>
          <internalNodes>
            0 -1 421 9.2360947746783495e-04</internalNodes>
          <leafValues>
            -1.7522089183330536e-01 2.5320029258728027e-01</leafValues></_>
        <_>
          <internalNodes>
            0 -1 328 -8.9388405904173851e-03</internalNodes>
          <leafValues>
            -1.4151553809642792e-01 3.2630950212478638e-01</leafValues></_>
        <_>
          <internalNodes>
            0 -1 88 -1.9315375015139580e-02</internalNodes>
          <leafValues>
            1.3444913923740387e-01 -4.4497975707054138e-01</leafValues></_>
        <_>
          <internalNodes>
            0 -1 114 4.1446634568274021e-03</internalNodes>
          <leafValues>
            -1.1962132155895233e-01 4.2377978563308716e-01</leafValues></_>
        <_>
          <internalNodes>
            0 -1 139 -5.1013603806495667e-03</internalNodes>
          <leafValues>
            2.7133744955062866e-01 -1.9836966693401337e-01</leafValues></_>
        <_>
          <internalNodes>
            0 -1 240 -3.0151370912790298e-02</internalNodes>
          <leafValues>
            5.5763703584671021e-01 -8.1946238875389099e-02</leafValues></_>
        <_>
          <internalNodes>
            0 -1 378 1.6643878072500229e-02</internalNodes>
          <leafValues>
            -1.1621934920549393e-01 4.9870514869689941e-01</leafValues></_></weakClassifiers></_>
    <!-- stage 4 -->
    <_>
      <maxWeakCount>45</maxWeakCount>
      <stageThreshold>-1.5422124862670898e+00</stageThreshold>
      <weakClassifiers>
        <_>
          <internalNodes>
            0 -1 451 1.2575480341911316e-01</internalNodes>
          <leafValues>
            -7.4723017215728760e-01 -2.7272728085517883e-01</leafValues></_>
        <_>
          <internalNodes>
            0 -1 353 -1.5355047769844532e-02</internalNodes>
          <leafValues>
            -4.4430649280548096e-01 1.2201288342475891e-01</leafValues></_>
        <_>
          <internalNodes>
            0 -1 526 -6.0574258677661419e-03</internalNodes>
          <leafValues>
            1.2423601001501083e-01 -5.9369760751724243e-01</leafValues></_>
        <_>
          <internalNodes>
            0 -1 28 -5.8626845479011536e-02</internalNodes>
          <leafValues>
            2.4446059763431549e-01 -2.3895211517810822e-01</leafValues></_>
        <_>
          <internalNodes>
            0 -1 4 -3.0958405695855618e-03</internalNodes>
          <leafValues>
            -5.8776086568832397e-01 1.1624253541231155e-01</leafValues></_>
        <_>
          <internalNodes>
            0 -1 302 -1.8560804426670074e-02</internalNodes>
          <leafValues>
            6.4405858516693115e-01 -9.3530364334583282e-02</leafValues></_>
        <_>
          <internalNodes>
            0 -1 98 3.9759323000907898e-02</internalNodes>
          <leafValues>
            -1.0203514248132706e-01 4.6367123723030090e-01</leafValues></_>
        <_>
          <internalNodes>
            0 -1 218 -1.1680763959884644e-01</internalNodes>
          <leafValues>
            6.6792778670787811e-02 -7.3241877555847168e-01</leafValues></_>
        <_>
          <internalNodes>
            0 -1 538 -1.1324927210807800e-02</internalNodes>
          <leafValues>
            -7.5680315494537354e-01 7.3325790464878082e-02</leafValues></_>
        <_>
          <internalNodes>
            0 -1 14 -1.6761340200901031e-01</internalNodes>
          <leafValues>
            -8.5544264316558838e-01 3.7001363933086395e-02</leafValues></_>
        <_>
          <internalNodes>
            0 -1 545 3.5877226036973298e-04</internalNodes>
          <leafValues>
            9.0472534298896790e-02 -4.4233760237693787e-01</leafValues></_>
        <_>
          <internalNodes>
            0 -1 513 2.4675331078469753e-03</internalNodes>
          <leafValues>
            -1.5833315253257751e-01 2.9769659042358398e-01</leafValues></_>
        <_>
          <internalNodes>
            0 -1 348 -6.4395358785986900e-03</internalNodes>
          <leafValues>
            2.3354381322860718e-01 -2.3126097023487091e-01</leafValues></_>
        <_>
          <internalNodes>
            0 -1 151 3.7700779736042023e-02</internalNodes>
          <leafValues>
            -5.2139535546302795e-02 8.0910444259643555e-01</leafValues></_>
        <_>
          <internalNodes>
            0 -1 490 5.0760753452777863e-02</internalNodes>
          <leafValues>
            -8.0632001161575317e-02 4.9946469068527222e-01</leafValues></_>
        <_>
          <internalNodes>
            0 -1 169 -5.2920440211892128e-03</internalNodes>
          <leafValues>
            2.9616093635559082e-01 -1.6713725030422211e-01</leafValues></_>
        <_>
          <internalNodes>
            0 -1 363 4.1886009275913239e-03</internalNodes>
          <leafValues>
            -1.1684370040893555e-01 3.6654132604598999e-01</leafValues></_>
        <_>
          <internalNodes>
            0 -1 274 -2.2428929805755615e-02</internalNodes>
          <leafValues>
            -6.3930857181549072e-01 6.5059393644332886e-02</leafValues></_>
        <_>
          <internalNodes>
            0 -1 78 -1.5733286738395691e-02</internalNodes>
          <leafValues>
            7.5135573744773865e-02 -5.2903044223785400e-01</leafValues></_>
        <_>
          <internalNodes>
            0 -1 188 1.4601133763790131e-02</internalNodes>
          <leafValues>
            -4.2305332422256470e-01 9.9045500159263611e-02</leafValues></_>
        <_>
          <internalNodes>
            0 -1 74 -2.4725447292439640e-04</internalNodes>
          <leafValues>
            -4.2941519618034363e-01 9.5372721552848816e-02</leafValues></_>
        <_>
          <internalNodes>
            0 -1 344 -2.7857873588800430e-02</internalNodes>
          <leafValues>
            -1.3523721694946289e-01 2.8362545371055603e-01</leafValues></_>
        <_>
          <internalNodes>
            0 -1 369 -2.9121679253876209e-03</internalNodes>
          <leafValues>
            4.7586914151906967e-02 -8.4523445367813110e-01</leafValues></_>
        <_>
          <internalNodes>
            0 -1 439 -3.2365773804485798e-03</internalNodes>
          <leafValues>
            3.6063644289970398e-01 -1.2383390218019485e-01</leafValues></_>
        <_>
          <internalNodes>
            0 -1 248 -8.8965089526027441e-04</internalNodes>
          <leafValues>
            -3.7484666705131531e-01 1.1598376184701920e-01</leafValues></_>
        <_>
          <internalNodes>
            0 -1 2 3.4590810537338257e-02</internalNodes>
          <leafValues>
            3.6555953323841095e-02 -8.4878647327423096e-01</leafValues></_>
        <_>
          <internalNodes>
            0 -1 66 -8.5018784739077091e-04</internalNodes>
          <leafValues>
            -7.1374446153640747e-01 4.0842261165380478e-02</leafValues></_>
        <_>
          <internalNodes>
            0 -1 335 6.4834242220968008e-04</internalNodes>
          <leafValues>
            7.6180458068847656e-02 -3.9362052083015442e-01</leafValues></_>
        <_>
          <internalNodes>
            0 -1 298 4.4828750193119049e-02</internalNodes>
          <leafValues>
            -5.9958610683679581e-02 5.8756375312805176e-01</leafValues></_>
        <_>
          <internalNodes>
            0 -1 228 5.1369477296248078e-04</internalNodes>
          <leafValues>
            -1.0218527913093567e-01 3.2557848095893860e-01</leafValues></_>
        <_>
          <internalNodes>
            0 -1 385 6.2598265707492828e-02</internalNodes>
          <leafValues>
            -1.4747591316699982e-01 2.2806951403617859e-01</leafValues></_>
        <_>
          <internalNodes>
            0 -1 280 6.3764110207557678e-02</internalNodes>
          <leafValues>
            5.7066701352596283e-02 -6.4394629001617432e-01</leafValues></_>
        <_>
          <internalNodes>
            0 -1 360 -7.0304321125149727e-03</internalNodes>
          <leafValues>
            -5.7608622312545776e-01 4.7687139362096786e-02</leafValues></_>
        <_>
          <internalNodes>
            0 -1 247 -5.7454807683825493e-03</internalNodes>
          <leafValues>
            3.8614624738693237e-01 -9.5886923372745514e-02</leafValues></_>
        <_>
          <internalNodes>
            0 -1 71 -8.4468156099319458e-02</internalNodes>
          <leafValues>
            -8.1653302907943726e-01 4.3950248509645462e-02</leafValues></_>
        <_>
          <internalNodes>
            0 -1 44 -1.8621601164340973e-02</internalNodes>
          <leafValues>
            8.4946200251579285e-02 -3.6391937732696533e-01</leafValues></_>
        <_>
          <internalNodes>
            0 -1 418 3.9024656871333718e-04</internalNodes>
          <leafValues>
            9.5239654183387756e-02 -3.8664957880973816e-01</leafValues></_>
        <_>
          <internalNodes>
            0 -1 227 -4.3135285377502441e-02</internalNodes>
          <leafValues>
            -6.6504275798797607e-01 4.8160549253225327e-02</leafValues></_>
        <_>
          <internalNodes>
            0 -1 179 4.1076034540310502e-04</internalNodes>
          <leafValues>
            -1.1605624109506607e-01 3.2346642017364502e-01</leafValues></_>
        <_>
          <internalNodes>
            0 -1 462 -3.3075243234634399e-02</internalNodes>
          <leafValues>
            -1.1903928220272064e-01 3.3877956867218018e-01</leafValues></_>
        <_>
          <internalNodes>
            0 -1 542 -3.0644739046692848e-02</internalNodes>
          <leafValues>
            1.5450799465179443e-01 -2.9703155159950256e-01</leafValues></_>
        <_>
          <internalNodes>
            0 -1 0 -1.2819974217563868e-03</internalNodes>
          <leafValues>
            -7.5327444076538086e-01 4.8241678625345230e-02</leafValues></_>
        <_>
          <internalNodes>
            0 -1 171 6.0635143890976906e-03</internalNodes>
          <leafValues>
            -1.0475760698318481e-01 4.2741554975509644e-01</leafValues></_>
        <_>
          <internalNodes>
            0 -1 434 -3.1786118634045124e-03</internalNodes>
          <leafValues>
            -4.3441733717918396e-01 8.7129183113574982e-02</leafValues></_>
        <_>
          <internalNodes>
            0 -1 210 -5.7197559624910355e-02</internalNodes>
          <leafValues>
            5.4351109266281128e-01 -8.2059830427169800e-02</leafValues></_></weakClassifiers></_>
    <!-- stage 5 -->
    <_>
      <maxWeakCount>55</maxWeakCount>
      <stageThreshold>-1.5176168680191040e+00</stageThreshold>
      <weakClassifiers>
        <_>
          <internalNodes>
            0 -1 18 -1.3816814124584198e-01</internalNodes>
          <leafValues>
            -4.1376230120658875e-01 -7.9800105094909668e-01</leafValues></_>
        <_>
          <internalNodes>
            0 -1 136 -8.7113618850708008e-02</internalNodes>
          <leafValues>
            1.9629657268524170e-02 -4.3750429153442383e-01</leafValues></_>
        <_>
          <internalNodes>
            0 -1 562 -6.3787447288632393e-03</internalNodes>
          <leafValues>
            9.3127571046352386e-02 -5.0769758224487305e-01</leafValues></_>
        <_>
          <internalNodes>
            0 -1 37 -8.0218940973281860e-02</internalNodes>
          <leafValues>
            4.3032479286193848e-01 -1.0159526020288467e-01</leafValues></_>
        <_>
          <internalNodes>
            0 -1 121 -6.0358554124832153e-02</internalNodes>
          <leafValues>
            4.3560779094696045e-01 -1.4200611412525177e-01</leafValues></_>
        <_>
          <internalNodes>
            0 -1 267 4.0841318666934967e-02</internalNodes>
          <leafValues>
            -1.5745811164379120e-01 3.3917209506034851e-01</leafValues></_>
        <_>
          <internalNodes>
            0 -1 318 -5.0360597670078278e-02</internalNodes>
          <leafValues>
            -8.9407569169998169e-01 4.4088765978813171e-02</leafValues></_>
        <_>
          <internalNodes>
            0 -1 89 -9.8151534795761108e-02</internalNodes>
          <leafValues>
            -3.6497899889945984e-01 1.4246369898319244e-01</leafValues></_>
        <_>
          <internalNodes>
            0 -1 161 -7.4461819604039192e-03</internalNodes>
          <leafValues>
            1.5292197465896606e-01 -3.0735182762145996e-01</leafValues></_>
        <_>
          <internalNodes>
            0 -1 63 -1.2243792414665222e-01</internalNodes>
          <leafValues>
            -8.0167129635810852e-02 5.1360583305358887e-01</leafValues></_>
        <_>
          <internalNodes>
            0 -1 229 -5.2710026502609253e-03</internalNodes>
          <leafValues>
            5.0036244094371796e-02 -8.3906203508377075e-01</leafValues></_>
        <_>
          <internalNodes>
            0 -1 339 1.4077293453738093e-03</internalNodes>
          <leafValues>
            -1.1439055204391479e-01 3.3367779850959778e-01</leafValues></_>
        <_>
          <internalNodes>
            0 -1 355 1.6085191071033478e-01</internalNodes>
          <leafValues>
            -7.9890914261341095e-02 4.2371425032615662e-01</leafValues></_>
        <_>
          <internalNodes>
            0 -1 133 -1.5994161367416382e-02</internalNodes>
          <leafValues>
            3.1453317403793335e-01 -1.2365639954805374e-01</leafValues></_>
        <_>
          <internalNodes>
            0 -1 19 6.3256427645683289e-02</internalNodes>
          <leafValues>
            3.5895824432373047e-02 -9.4912898540496826e-01</leafValues></_>
        <_>
          <internalNodes>
            0 -1 236 1.4926333911716938e-02</internalNodes>
          <leafValues>
            -1.3026084005832672e-01 2.9385462403297424e-01</leafValues></_>
        <_>
          <internalNodes>
            0 -1 269 -6.8153832107782364e-03</internalNodes>
          <leafValues>
            3.2614806294441223e-01 -1.0815871506929398e-01</leafValues></_>
        <_>
          <internalNodes>
            0 -1 126 5.8371038176119328e-04</internalNodes>
          <leafValues>
            6.0403380542993546e-02 -6.1737304925918579e-01</leafValues></_>
        <_>
          <internalNodes>
            0 -1 310 -3.6460910923779011e-03</internalNodes>
          <leafValues>
            3.8984012603759766e-01 -1.0341914743185043e-01</leafValues></_>
        <_>
          <internalNodes>
            0 -1 233 -2.1739166975021362e-01</internalNodes>
          <leafValues>
            -2.4879628419876099e-01 1.4829143881797791e-01</leafValues></_>
        <_>
          <internalNodes>
            0 -1 561 -2.1124970167875290e-02</internalNodes>
          <leafValues>
            1.2163268029689789e-01 -3.3915132284164429e-01</leafValues></_>
        <_>
          <internalNodes>
            0 -1 464 -1.1835368350148201e-03</internalNodes>
          <leafValues>
            2.2865772247314453e-01 -1.6132900118827820e-01</leafValues></_>
        <_>
          <internalNodes>
            0 -1 527 -1.6221939586102962e-03</internalNodes>
          <leafValues>
            -4.6356651186943054e-01 8.6657725274562836e-02</leafValues></_>
        <_>
          <internalNodes>
            0 -1 392 -3.4032354597002268e-03</internalNodes>
          <leafValues>
            3.9228928089141846e-01 -9.2135615646839142e-02</leafValues></_>
        <_>
          <internalNodes>
            0 -1 1 1.3998111244291067e-03</internalNodes>
          <leafValues>
            1.0193485021591187e-01 -3.4622418880462646e-01</leafValues></_>
        <_>
          <internalNodes>
            0 -1 250 -1.0235222056508064e-02</internalNodes>
          <leafValues>
            -1.2323783338069916e-01 2.8815951943397522e-01</leafValues></_>
        <_>
          <internalNodes>
            0 -1 53 -2.3270417004823685e-02</internalNodes>
          <leafValues>
            1.4623761177062988e-01 -2.2669421136379242e-01</leafValues></_>
        <_>
          <internalNodes>
            0 -1 8 -1.0655502788722515e-02</internalNodes>
          <leafValues>
            -5.9336864948272705e-01 5.6976187974214554e-02</leafValues></_>
        <_>
          <internalNodes>
            0 -1 336 4.6276256442070007e-02</internalNodes>
          <leafValues>
            -7.0148058235645294e-02 6.3052433729171753e-01</leafValues></_>
        <_>
          <internalNodes>
            0 -1 11 -2.9482582584023476e-02</internalNodes>
          <leafValues>
            2.4352271854877472e-01 -1.4246435463428497e-01</leafValues></_>
        <_>
          <internalNodes>
            0 -1 127 -1.9639427773654461e-04</internalNodes>
          <leafValues>
            -3.0562075972557068e-01 1.1184595525264740e-01</leafValues></_>
        <_>
          <internalNodes>
            0 -1 502 1.9169582519680262e-03</internalNodes>
          <leafValues>
            5.1096662878990173e-02 -6.0323905944824219e-01</leafValues></_>
        <_>
          <internalNodes>
            0 -1 243 1.0918823070824146e-02</internalNodes>
          <leafValues>
            -1.1611347645521164e-01 3.0759999155998230e-01</leafValues></_>
        <_>
          <internalNodes>
            0 -1 105 2.6467877626419067e-01</internalNodes>
          <leafValues>
            -6.9111205637454987e-02 5.1665234565734863e-01</leafValues></_>
        <_>
          <internalNodes>
            0 -1 141 -1.0168853215873241e-02</internalNodes>
          <leafValues>
            3.0946323275566101e-01 -9.3368582427501678e-02</leafValues></_>
        <_>
          <internalNodes>
            0 -1 196 -1.1397518683224916e-03</internalNodes>
          <leafValues>
            2.0461587607860565e-01 -1.6392786800861359e-01</leafValues></_>
        <_>
          <internalNodes>
            0 -1 412 -1.4101817505434155e-03</internalNodes>
          <leafValues>
            1.5673789381980896e-01 -2.2369116544723511e-01</leafValues></_>
        <_>
          <internalNodes>
            0 -1 522 -8.9558877516537905e-04</internalNodes>
          <leafValues>
            -5.3059923648834229e-01 6.4316406846046448e-02</leafValues></_>
        <_>
          <internalNodes>
            0 -1 376 -4.6926317736506462e-04</internalNodes>
          <leafValues>
            2.3208668828010559e-01 -1.5401084721088409e-01</leafValues></_>
        <_>
          <internalNodes>
            0 -1 268 -1.0990905761718750e-01</internalNodes>
          <leafValues>
            6.0515004396438599e-01 -6.5121784806251526e-02</leafValues></_>
        <_>
          <internalNodes>
            0 -1 40 -1.3399773277342319e-02</internalNodes>
          <leafValues>
            6.0306137800216675e-01 -6.0392256826162338e-02</leafValues></_>
        <_>
          <internalNodes>
            0 -1 510 -1.6163981053978205e-03</internalNodes>
          <leafValues>
            -5.3921902179718018e-01 7.4543148279190063e-02</leafValues></_>
        <_>
          <internalNodes>
            0 -1 282 -4.6663749963045120e-03</internalNodes>
          <leafValues>
            4.4654744863510132e-01 -9.1120354831218719e-02</leafValues></_>
        <_>
          <internalNodes>
            0 -1 162 -1.0852447012439370e-03</internalNodes>
          <leafValues>
            -3.3624154329299927e-01 1.0128583759069443e-01</leafValues></_>
        <_>
          <internalNodes>
            0 -1 475 9.6795409917831421e-03</internalNodes>
          <leafValues>
            -1.1955232173204422e-01 2.9243278503417969e-01</leafValues></_>
        <_>
          <internalNodes>
            0 -1 140 -3.1867228448390961e-02</internalNodes>
          <leafValues>
            5.1134967803955078e-01 -7.5452849268913269e-02</leafValues></_>
        <_>
          <internalNodes>
            0 -1 186 4.0506762161385268e-05</internalNodes>
          <leafValues>
            -1.6577297449111938e-01 2.3813812434673309e-01</leafValues></_>
        <_>
          <internalNodes>
            0 -1 12 -8.4218120574951172e-01</internalNodes>
          <leafValues>
            5.1229987293481827e-02 -7.1187037229537964e-01</leafValues></_>
        <_>
          <internalNodes>
            0 -1 259 -7.1177616715431213e-02</internalNodes>
          <leafValues>
            -1.1098494380712509e-01 4.0313449501991272e-01</leafValues></_>
        <_>
          <internalNodes>
            0 -1 476 -1.0988362133502960e-02</internalNodes>
          <leafValues>
            4.8781579732894897e-01 -8.7164483964443207e-02</leafValues></_>
        <_>
          <internalNodes>
            0 -1 100 4.0835402905941010e-03</internalNodes>
          <leafValues>
            5.1310349255800247e-02 -6.8374472856521606e-01</leafValues></_>
        <_>
          <internalNodes>
            0 -1 313 6.6914958879351616e-03</internalNodes>
          <leafValues>
            4.3415378779172897e-02 -6.7828404903411865e-01</leafValues></_>
        <_>
          <internalNodes>
            0 -1 439 2.2973367013037205e-03</internalNodes>
          <leafValues>
            -1.2251979857683182e-01 2.9910647869110107e-01</leafValues></_>
        <_>
          <internalNodes>
            0 -1 458 -4.0959718171507120e-04</internalNodes>
          <leafValues>
            3.0058050155639648e-01 -1.1910414695739746e-01</leafValues></_>
        <_>
          <internalNodes>
            0 -1 509 6.4771668985486031e-04</internalNodes>
          <leafValues>
            6.4736776053905487e-02 -5.7655417919158936e-01</leafValues></_></weakClassifiers></_>
    <!-- stage 6 -->
    <_>
      <maxWeakCount>55</maxWeakCount>
      <stageThreshold>-1.5423934459686279e+00</stageThreshold>
      <weakClassifiers>
        <_>
          <internalNodes>
            0 -1 153 2.5880770757794380e-02</internalNodes>
          <leafValues>
            -8.8501739501953125e-01 -5.1495724916458130e-01</leafValues></_>
        <_>
          <internalNodes>
            0 -1 73 -2.8489116579294205e-02</internalNodes>
          <leafValues>
            1.5031176805496216e-01 -3.6586958169937134e-01</leafValues></_>
        <_>
          <internalNodes>
            0 -1 430 5.0354398787021637e-02</internalNodes>
          <leafValues>
            -1.8173532187938690e-01 3.4189248085021973e-01</leafValues></_>
        <_>
          <internalNodes>
            0 -1 465 2.0414283499121666e-03</internalNodes>
          <leafValues>
            6.2862224876880646e-02 -8.8345605134963989e-01</leafValues></_>
        <_>
          <internalNodes>
            0 -1 184 7.1574307978153229e-02</internalNodes>
          <leafValues>
            -7.2339177131652832e-02 5.9682345390319824e-01</leafValues></_>
        <_>
          <internalNodes>
            0 -1 130 6.4072548411786556e-04</internalNodes>
          <leafValues>
            7.4082300066947937e-02 -6.9385588169097900e-01</leafValues></_>
        <_>
          <internalNodes>
            0 -1 351 5.6238785386085510e-02</internalNodes>
          <leafValues>
            -7.8669384121894836e-02 4.8658248782157898e-01</leafValues></_>
        <_>
          <internalNodes>
            0 -1 26 -8.3914473652839661e-02</internalNodes>
          <leafValues>
            2.3812445998191833e-01 -1.8638443946838379e-01</leafValues></_>
        <_>
          <internalNodes>
            0 -1 382 -1.0269752889871597e-01</internalNodes>
          <leafValues>
            2.3700809478759766e-01 -1.7498864233493805e-01</leafValues></_>
        <_>
          <internalNodes>
            0 -1 456 -1.1139415204524994e-02</internalNodes>
          <leafValues>
            -1.6421432793140411e-01 2.2360219061374664e-01</leafValues></_>
        <_>
          <internalNodes>
            0 -1 80 -7.8603804111480713e-01</internalNodes>
          <leafValues>
            8.3901070058345795e-02 -5.5682891607284546e-01</leafValues></_>
        <_>
          <internalNodes>
            0 -1 539 -1.2144369538873434e-03</internalNodes>
          <leafValues>
            -6.1414790153503418e-01 4.2494855821132660e-02</leafValues></_>
        <_>
          <internalNodes>
            0 -1 551 -1.5120261814445257e-03</internalNodes>
          <leafValues>
            -4.1441255807876587e-01 6.5250858664512634e-02</leafValues></_>
        <_>
          <internalNodes>
            0 -1 277 -2.7269199490547180e-02</internalNodes>
          <leafValues>
            -6.8037682771682739e-01 4.1481107473373413e-02</leafValues></_>
        <_>
          <internalNodes>
            0 -1 67 -5.7892715558409691e-03</internalNodes>
          <leafValues>
            4.0510985255241394e-01 -8.3804108202457428e-02</leafValues></_>
        <_>
          <internalNodes>
            0 -1 51 -5.9288687771186233e-04</internalNodes>
          <leafValues>
            -2.0118631422519684e-01 1.6252237558364868e-01</leafValues></_>
        <_>
          <internalNodes>
            0 -1 116 -8.5030756890773773e-03</internalNodes>
          <leafValues>
            2.3129613697528839e-01 -1.2567472457885742e-01</leafValues></_>
        <_>
          <internalNodes>
            0 -1 375 6.6198096610605717e-03</internalNodes>
          <leafValues>
            3.5238612443208694e-02 -8.5998976230621338e-01</leafValues></_>
        <_>
          <internalNodes>
            0 -1 137 -1.5332207549363375e-03</internalNodes>
          <leafValues>
            2.3601695895195007e-01 -1.3486728072166443e-01</leafValues></_>
        <_>
          <internalNodes>
            0 -1 396 -5.6330982595682144e-02</internalNodes>
          <leafValues>
            5.8159953355789185e-01 -5.1785789430141449e-02</leafValues></_>
        <_>
          <internalNodes>
            0 -1 523 1.9493767467793077e-04</internalNodes>
          <leafValues>
            1.4280734956264496e-01 -2.4444448947906494e-01</leafValues></_>
        <_>
          <internalNodes>
            0 -1 515 2.5254540145397186e-02</internalNodes>
          <leafValues>
            -6.1551425606012344e-02 5.8858650922775269e-01</leafValues></_>
        <_>
          <internalNodes>
            0 -1 125 -3.4676995128393173e-02</internalNodes>
          <leafValues>
            6.8864512443542480e-01 -4.3120130896568298e-02</leafValues></_>
        <_>
          <internalNodes>
            0 -1 177 2.4994771927595139e-02</internalNodes>
          <leafValues>
            -6.4860187470912933e-02 4.8177701234817505e-01</leafValues></_>
        <_>
          <internalNodes>
            0 -1 287 -7.5448274612426758e-02</internalNodes>
          <leafValues>
            -1.5209370851516724e-01 2.1936160326004028e-01</leafValues></_>
        <_>
          <internalNodes>
            0 -1 54 -7.3093958199024200e-03</internalNodes>
          <leafValues>
            1.4779902994632721e-01 -2.6401913166046143e-01</leafValues></_>
        <_>
          <internalNodes>
            0 -1 262 -4.4042222201824188e-02</internalNodes>
          <leafValues>
            5.8656549453735352e-01 -6.3019163906574249e-02</leafValues></_>
        <_>
          <internalNodes>
            0 -1 547 -5.0138257211074233e-04</internalNodes>
          <leafValues>
            -6.4596098661422729e-01 5.2574101835489273e-02</leafValues></_>
        <_>
          <internalNodes>
            0 -1 496 1.8379570974502712e-04</internalNodes>
          <leafValues>
            -1.5601418912410736e-01 2.2087098658084869e-01</leafValues></_>
        <_>
          <internalNodes>
            0 -1 118 -4.7125290147960186e-03</internalNodes>
          <leafValues>
            -4.5597821474075317e-01 7.0164173841476440e-02</leafValues></_>
        <_>
          <internalNodes>
            0 -1 309 -2.7579150628298521e-03</internalNodes>
          <leafValues>
            3.3947107195854187e-01 -8.6254544556140900e-02</leafValues></_>
        <_>
          <internalNodes>
            0 -1 332 -2.0567934960126877e-02</internalNodes>
          <leafValues>
            4.4817867875099182e-01 -7.0078358054161072e-02</leafValues></_>
        <_>
          <internalNodes>
            0 -1 230 -6.1298921704292297e-02</internalNodes>
          <leafValues>
            3.8139317184686661e-02 -9.0273106098175049e-01</leafValues></_>
        <_>
          <internalNodes>
            0 -1 164 -6.1951179057359695e-02</internalNodes>
          <leafValues>
            5.5946034193038940e-01 -6.7418366670608521e-02</leafValues></_>
        <_>
          <internalNodes>
            0 -1 543 4.1972595499828458e-04</internalNodes>
          <leafValues>
            8.6271181702613831e-02 -4.1801434755325317e-01</leafValues></_>
        <_>
          <internalNodes>
            0 -1 431 -2.6262715458869934e-02</internalNodes>
          <leafValues>
            -1.2870728969573975e-01 2.8927099704742432e-01</leafValues></_>
        <_>
          <internalNodes>
            0 -1 292 -3.4087721724063158e-03</internalNodes>
          <leafValues>
            2.8043428063392639e-01 -1.3202889263629913e-01</leafValues></_>
        <_>
          <internalNodes>
            0 -1 525 -4.5425019925460219e-04</internalNodes>
          <leafValues>
            -4.4572457671165466e-01 7.1835860610008240e-02</leafValues></_>
        <_>
          <internalNodes>
            0 -1 271 1.8870772793889046e-02</internalNodes>
          <leafValues>
            -8.1593640148639679e-02 3.9618179202079773e-01</leafValues></_>
        <_>
          <internalNodes>
            0 -1 234 -2.9754951596260071e-02</internalNodes>
          <leafValues>
            4.9154409766197205e-01 -5.8226227760314941e-02</leafValues></_>
        <_>
          <internalNodes>
            0 -1 124 7.0558831095695496e-02</internalNodes>
          <leafValues>
            -5.4556109011173248e-02 5.3700268268585205e-01</leafValues></_>
        <_>
          <internalNodes>
            0 -1 295 5.1645946223288774e-04</internalNodes>
          <leafValues>
            -1.4801660180091858e-01 2.2793903946876526e-01</leafValues></_>
        <_>
          <internalNodes>
            0 -1 361 -7.3910310864448547e-02</internalNodes>
          <leafValues>
            5.4040694236755371e-01 -5.6781474500894547e-02</leafValues></_>
        <_>
          <internalNodes>
            0 -1 407 -3.5227453336119652e-03</internalNodes>
          <leafValues>
            -7.7754181623458862e-01 4.3302506208419800e-02</leafValues></_>
        <_>
          <internalNodes>
            0 -1 345 -3.2053846865892410e-02</internalNodes>
          <leafValues>
            6.5299654006958008e-01 -5.7607855647802353e-02</leafValues></_>
        <_>
          <internalNodes>
            0 -1 192 -2.2050563246011734e-02</internalNodes>
          <leafValues>
            -6.4128333330154419e-01 6.0723692178726196e-02</leafValues></_>
        <_>
          <internalNodes>
            0 -1 443 -9.8938178271055222e-03</internalNodes>
          <leafValues>
            3.0574617907404900e-02 -8.2881796360015869e-01</leafValues></_>
        <_>
          <internalNodes>
            0 -1 479 7.6756800990551710e-04</internalNodes>
          <leafValues>
            -1.3231581449508667e-01 2.3801191151142120e-01</leafValues></_>
        <_>
          <internalNodes>
            0 -1 323 -4.8922270536422729e-02</internalNodes>
          <leafValues>
            -7.5014823675155640e-01 3.9691712707281113e-02</leafValues></_>
        <_>
          <internalNodes>
            0 -1 260 2.1689124696422368e-04</internalNodes>
          <leafValues>
            -1.3861295580863953e-01 2.2081317007541656e-01</leafValues></_>
        <_>
          <internalNodes>
            0 -1 72 2.5464400649070740e-02</internalNodes>
          <leafValues>
            4.8179388046264648e-02 -6.2019222974777222e-01</leafValues></_>
        <_>
          <internalNodes>
            0 -1 384 1.2571440311148763e-03</internalNodes>
          <leafValues>
            -1.2218663841485977e-01 2.6943889260292053e-01</leafValues></_>
        <_>
          <internalNodes>
            0 -1 495 3.5115741193294525e-02</internalNodes>
          <leafValues>
            -6.7145913839340210e-02 4.4120395183563232e-01</leafValues></_>
        <_>
          <internalNodes>
            0 -1 461 -5.6971227750182152e-03</internalNodes>
          <leafValues>
            -1.4912119507789612e-01 2.1928302943706512e-01</leafValues></_>
        <_>
          <internalNodes>
            0 -1 459 -2.0907013677060604e-03</internalNodes>
          <leafValues>
            -8.3017820119857788e-01 3.6455675959587097e-02</leafValues></_></weakClassifiers></_>
    <!-- stage 7 -->
    <_>
      <maxWeakCount>70</maxWeakCount>
      <stageThreshold>-1.4805092811584473e+00</stageThreshold>
      <weakClassifiers>
        <_>
          <internalNodes>
            0 -1 489 5.7915136218070984e-02</internalNodes>
          <leafValues>
            -7.3833483457565308e-01 -4.3884891271591187e-01</leafValues></_>
        <_>
          <internalNodes>
            0 -1 214 5.8527447283267975e-02</internalNodes>
          <leafValues>
            -3.2967489957809448e-01 6.7948795855045319e-02</leafValues></_>
        <_>
          <internalNodes>
            0 -1 536 -2.2079464048147202e-02</internalNodes>
          <leafValues>
            6.5275192260742188e-02 -5.4170078039169312e-01</leafValues></_>
        <_>
          <internalNodes>
            0 -1 402 -2.0042657852172852e-02</internalNodes>
          <leafValues>
            -1.1105243861675262e-01 4.0290093421936035e-01</leafValues></_>
        <_>
          <internalNodes>
            0 -1 556 -4.6458162367343903e-02</internalNodes>
          <leafValues>
            -7.6747268438339233e-01 6.5500348806381226e-02</leafValues></_>
        <_>
          <internalNodes>
            0 -1 390 -7.4308020994067192e-03</internalNodes>
          <leafValues>
            2.0529394969344139e-02 -1.</leafValues></_>
        <_>
          <internalNodes>
            0 -1 408 -1.3202697038650513e-02</internalNodes>
          <leafValues>
            2.8247667476534843e-02 -6.5553396940231323e-01</leafValues></_>
        <_>
          <internalNodes>
            0 -1 69 -1.4039308764040470e-02</internalNodes>
          <leafValues>
            1.5222162008285522e-01 -1.9757762551307678e-01</leafValues></_>
        <_>
          <internalNodes>
            0 -1 39 -1.6853190958499908e-02</internalNodes>
          <leafValues>
            1.9325055181980133e-01 -1.6948480904102325e-01</leafValues></_>
        <_>
          <internalNodes>
            0 -1 528 1.6904402524232864e-02</internalNodes>
          <leafValues>
            -5.3530693054199219e-02 5.6550800800323486e-01</leafValues></_>
        <_>
          <internalNodes>
            0 -1 532 3.4080535173416138e-02</internalNodes>
          <leafValues>
            3.1099770218133926e-02 -8.7731117010116577e-01</leafValues></_>
        <_>
          <internalNodes>
            0 -1 293 2.7828969061374664e-02</internalNodes>
          <leafValues>
            -1.4631824195384979e-01 2.5096967816352844e-01</leafValues></_>
        <_>
          <internalNodes>
            0 -1 182 1.3303998857736588e-02</internalNodes>
          <leafValues>
            -1.9613100588321686e-01 1.9139175117015839e-01</leafValues></_>
        <_>
          <internalNodes>
            0 -1 208 -5.9999112272635102e-04</internalNodes>
          <leafValues>
            -1.5263377130031586e-01 1.9038233160972595e-01</leafValues></_>
        <_>
          <internalNodes>
            0 -1 468 -1.0017404332756996e-02</internalNodes>
          <leafValues>
            2.3635642230510712e-01 -1.2678754329681396e-01</leafValues></_>
        <_>
          <internalNodes>
            0 -1 86 -1.7523001879453659e-02</internalNodes>
          <leafValues>
            -6.6389918327331543e-01 4.6872820705175400e-02</leafValues></_>
        <_>
          <internalNodes>
            0 -1 516 6.1647110851481557e-04</internalNodes>
          <leafValues>
            1.4831747114658356e-01 -1.7373195290565491e-01</leafValues></_>
        <_>
          <internalNodes>
            0 -1 99 1.5952374087646604e-04</internalNodes>
          <leafValues>
            9.7000949084758759e-02 -2.9171508550643921e-01</leafValues></_>
        <_>
          <internalNodes>
            0 -1 321 4.5367400161921978e-04</internalNodes>
          <leafValues>
            -1.3658235967159271e-01 1.8476183712482452e-01</leafValues></_>
        <_>
          <internalNodes>
            0 -1 142 -3.6820061504840851e-02</internalNodes>
          <leafValues>
            2.6762512326240540e-01 -9.6343778073787689e-02</leafValues></_>
        <_>
          <internalNodes>
            0 -1 278 1.3505902141332626e-02</internalNodes>
          <leafValues>
            -9.2609904706478119e-02 3.0169612169265747e-01</leafValues></_>
        <_>
          <internalNodes>
            0 -1 452 5.6727614253759384e-02</internalNodes>
          <leafValues>
            -1.0570007562637329e-01 2.6682296395301819e-01</leafValues></_>
        <_>
          <internalNodes>
            0 -1 500 2.5673396885395050e-04</internalNodes>
          <leafValues>
            1.0967367142438889e-01 -2.7053719758987427e-01</leafValues></_>
        <_>
          <internalNodes>
            0 -1 365 -2.7778437361121178e-03</internalNodes>
          <leafValues>
            2.4669911712408066e-02 -1.</leafValues></_>
        <_>
          <internalNodes>
            0 -1 261 -2.4514857679605484e-02</internalNodes>
          <leafValues>
            -1.2183351814746857e-01 2.3498938977718353e-01</leafValues></_>
        <_>
          <internalNodes>
            0 -1 554 -3.6929115653038025e-02</internalNodes>
          <leafValues>
            7.2561308741569519e-02 -3.7690398097038269e-01</leafValues></_>
        <_>
          <internalNodes>
            0 -1 300 -1.1408292688429356e-02</internalNodes>
          <leafValues>
            2.6563495397567749e-01 -1.0489483922719955e-01</leafValues></_>
        <_>
          <internalNodes>
            0 -1 35 -6.1305977404117584e-02</internalNodes>
          <leafValues>
            -5.4877191781997681e-01 4.9820456653833389e-02</leafValues></_>
        <_>
          <internalNodes>
            0 -1 445 -2.0304085686802864e-02</internalNodes>
          <leafValues>
            -1. 1.9784491509199142e-02</leafValues></_>
        <_>
          <internalNodes>
            0 -1 354 -6.6900195088237524e-04</internalNodes>
          <leafValues>
            1.8660992383956909e-01 -1.3972471654415131e-01</leafValues></_>
        <_>
          <internalNodes>
            0 -1 415 2.0832875743508339e-03</internalNodes>
          <leafValues>
            2.6230536401271820e-02 -9.1691714525222778e-01</leafValues></_>
        <_>
          <internalNodes>
            0 -1 187 -6.3846400007605553e-03</internalNodes>
          <leafValues>
            -6.5583363175392151e-02 4.5287936925888062e-01</leafValues></_>
        <_>
          <internalNodes>
            0 -1 161 -5.1587326452136040e-03</internalNodes>
          <leafValues>
            6.8292692303657532e-02 -5.6292140483856201e-01</leafValues></_>
        <_>
          <internalNodes>
            0 -1 160 2.7417662204243243e-04</internalNodes>
          <leafValues>
            1.3186882436275482e-01 -1.9892789423465729e-01</leafValues></_>
        <_>
          <internalNodes>
            0 -1 413 -1.1764967348426580e-03</internalNodes>
          <leafValues>
            2.1723136305809021e-01 -1.1905033886432648e-01</leafValues></_>
        <_>
          <internalNodes>
            0 -1 504 -6.9074273109436035e-02</internalNodes>
          <leafValues>
            -8.5666882991790771e-01 3.1260825693607330e-02</leafValues></_>
        <_>
          <internalNodes>
            0 -1 152 1.6942631453275681e-02</internalNodes>
          <leafValues>
            3.1469941139221191e-02 -6.2259894609451294e-01</leafValues></_>
        <_>
          <internalNodes>
            0 -1 305 -3.7465940113179386e-04</internalNodes>
          <leafValues>
            -3.5157859325408936e-01 7.1215957403182983e-02</leafValues></_>
        <_>
          <internalNodes>
            0 -1 455 7.4234383646398783e-04</internalNodes>
          <leafValues>
            -9.5264099538326263e-02 2.9032692313194275e-01</leafValues></_>
        <_>
          <internalNodes>
            0 -1 441 -2.7800146490335464e-02</internalNodes>
          <leafValues>
            -9.2038220167160034e-01 3.1606052070856094e-02</leafValues></_>
        <_>
          <internalNodes>
            0 -1 307 -7.2960361838340759e-02</internalNodes>
          <leafValues>
            9.4147399067878723e-02 -2.7497074007987976e-01</leafValues></_>
        <_>
          <internalNodes>
            0 -1 386 1.7901429906487465e-02</internalNodes>
          <leafValues>
            -4.6409644186496735e-02 5.6613767147064209e-01</leafValues></_>
        <_>
          <internalNodes>
            0 -1 5 9.0513157192617655e-04</internalNodes>
          <leafValues>
            7.8281268477439880e-02 -3.5110935568809509e-01</leafValues></_>
        <_>
          <internalNodes>
            0 -1 305 2.5364488828927279e-04</internalNodes>
          <leafValues>
            7.6093964278697968e-02 -3.1572666764259338e-01</leafValues></_>
        <_>
          <internalNodes>
            0 -1 81 -3.0063882470130920e-02</internalNodes>
          <leafValues>
            3.0218639969825745e-01 -8.9310117065906525e-02</leafValues></_>
        <_>
          <internalNodes>
            0 -1 6 -1.4442956075072289e-02</internalNodes>
          <leafValues>
            -7.5668656826019287e-01 4.1871670633554459e-02</leafValues></_>
        <_>
          <internalNodes>
            0 -1 288 -2.6646889746189117e-03</internalNodes>
          <leafValues>
            2.7987148612737656e-02 -7.4781650304794312e-01</leafValues></_>
        <_>
          <internalNodes>
            0 -1 224 -8.5009395843371749e-04</internalNodes>
          <leafValues>
            2.6773792505264282e-01 -1.0882957279682159e-01</leafValues></_>
        <_>
          <internalNodes>
            0 -1 134 -3.1239895150065422e-02</internalNodes>
          <leafValues>
            -5.4533666372299194e-01 5.2668049931526184e-02</leafValues></_>
        <_>
          <internalNodes>
            0 -1 492 -1.5066649764776230e-02</internalNodes>
          <leafValues>
            -1.0011360049247742e-01 2.8580144047737122e-01</leafValues></_>
        <_>
          <internalNodes>
            0 -1 449 1.4259743504226208e-02</internalNodes>
          <leafValues>
            -6.3262149691581726e-02 4.3141305446624756e-01</leafValues></_>
        <_>
          <internalNodes>
            0 -1 478 1.0832546977326274e-03</internalNodes>
          <leafValues>
            -1.1456115543842316e-01 2.3069408535957336e-01</leafValues></_>
        <_>
          <internalNodes>
            0 -1 334 4.9890637397766113e-02</internalNodes>
          <leafValues>
            -5.2934899926185608e-02 5.3699249029159546e-01</leafValues></_>
        <_>
          <internalNodes>
            0 -1 419 3.3957324922084808e-02</internalNodes>
          <leafValues>
            3.1585477292537689e-02 -9.5235306024551392e-01</leafValues></_>
        <_>
          <internalNodes>
            0 -1 450 -4.0449820458889008e-02</internalNodes>
          <leafValues>
            2.3547995090484619e-01 -1.2823337316513062e-01</leafValues></_>
        <_>
          <internalNodes>
            0 -1 107 -2.4064004421234131e-02</internalNodes>
          <leafValues>
            2.4238575994968414e-01 -1.2526932358741760e-01</leafValues></_>
        <_>
          <internalNodes>
            0 -1 314 -8.2147232023999095e-04</internalNodes>
          <leafValues>
            2.5551757216453552e-01 -1.0852885246276855e-01</leafValues></_>
        <_>
          <internalNodes>
            0 -1 94 -1.7922978848218918e-02</internalNodes>
          <leafValues>
            5.2645450830459595e-01 -5.1397372037172318e-02</leafValues></_>
        <_>
          <internalNodes>
            0 -1 155 -6.0446641873568296e-04</internalNodes>
          <leafValues>
            -2.6579889655113220e-01 1.0588161647319794e-01</leafValues></_>
        <_>
          <internalNodes>
            0 -1 308 2.2469419054687023e-03</internalNodes>
          <leafValues>
            -6.8875923752784729e-02 3.9853742718696594e-01</leafValues></_>
        <_>
          <internalNodes>
            0 -1 494 -8.3919375902041793e-04</internalNodes>
          <leafValues>
            2.8035902976989746e-01 -9.0992562472820282e-02</leafValues></_>
        <_>
          <internalNodes>
            0 -1 10 -1.1784066446125507e-02</internalNodes>
          <leafValues>
            1.6304175555706024e-01 -1.7296575009822845e-01</leafValues></_>
        <_>
          <internalNodes>
            0 -1 467 -7.9122539609670639e-03</internalNodes>
          <leafValues>
            2.9594755172729492e-01 -1.0737612843513489e-01</leafValues></_>
        <_>
          <internalNodes>
            0 -1 31 -2.2446429356932640e-02</internalNodes>
          <leafValues>
            6.3998490571975708e-02 -4.4046759605407715e-01</leafValues></_>
        <_>
          <internalNodes>
            0 -1 557 -7.5226118788123131e-03</internalNodes>
          <leafValues>
            -7.2886282205581665e-01 3.3381350338459015e-02</leafValues></_>
        <_>
          <internalNodes>
            0 -1 484 -2.6306817308068275e-03</internalNodes>
          <leafValues>
            -5.9053741395473480e-02 5.2463078498840332e-01</leafValues></_>
        <_>
          <internalNodes>
            0 -1 117 -6.9239512085914612e-02</internalNodes>
          <leafValues>
            5.7177692651748657e-01 -4.6317931264638901e-02</leafValues></_>
        <_>
          <internalNodes>
            0 -1 533 7.5250258669257164e-03</internalNodes>
          <leafValues>
            -4.8025041818618774e-02 5.4236644506454468e-01</leafValues></_>
        <_>
          <internalNodes>
            0 -1 48 -8.8790260255336761e-02</internalNodes>
          <leafValues>
            -9.0111815929412842e-01 3.7871580570936203e-02</leafValues></_>
        <_>
          <internalNodes>
            0 -1 341 7.5303120538592339e-03</internalNodes>
          <leafValues>
            2.0942518487572670e-02 -8.3708161115646362e-01</leafValues></_></weakClassifiers></_>
    <!-- stage 8 -->
    <_>
      <maxWeakCount>61</maxWeakCount>
      <stageThreshold>-1.4164762496948242e+00</stageThreshold>
      <weakClassifiers>
        <_>
          <internalNodes>
            0 -1 350 -2.8469145298004150e-02</internalNodes>
          <leafValues>
            -7.4031889438629150e-01 -4.3030303716659546e-01</leafValues></_>
        <_>
          <internalNodes>
            0 -1 524 -2.4736508727073669e-02</internalNodes>
          <leafValues>
            -4.3891984969377518e-02 -5.5847007036209106e-01</leafValues></_>
        <_>
          <internalNodes>
            0 -1 373 2.1653543226420879e-03</internalNodes>
          <leafValues>
            3.1978733837604523e-02 -9.5546871423721313e-01</leafValues></_>
        <_>
          <internalNodes>
            0 -1 59 -1.1594812385737896e-02</internalNodes>
          <leafValues>
            8.3228193223476410e-02 -4.7250115871429443e-01</leafValues></_>
        <_>
          <internalNodes>
            0 -1 123 -1.2190352380275726e-01</internalNodes>
          <leafValues>
            -8.9692376554012299e-02 4.7551628947257996e-01</leafValues></_>
        <_>
          <internalNodes>
            0 -1 548 -3.1599658541381359e-04</internalNodes>
          <leafValues>
            -4.2112866044044495e-01 9.7910083830356598e-02</leafValues></_>
        <_>
          <internalNodes>
            0 -1 380 9.9048856645822525e-03</internalNodes>
          <leafValues>
            -1.0215793550014496e-01 3.7322610616683960e-01</leafValues></_>
        <_>
          <internalNodes>
            0 -1 371 6.2795437872409821e-02</internalNodes>
          <leafValues>
            -1.2957468628883362e-01 2.6626747846603394e-01</leafValues></_>
        <_>
          <internalNodes>
            0 -1 520 -6.7587237572297454e-04</internalNodes>
          <leafValues>
            -3.9923104643821716e-01 9.4959676265716553e-02</leafValues></_>
        <_>
          <internalNodes>
            0 -1 23 -1.9273607176728547e-04</internalNodes>
          <leafValues>
            -3.3846366405487061e-01 1.0722623020410538e-01</leafValues></_>
        <_>
          <internalNodes>
            0 -1 148 7.0967581123113632e-03</internalNodes>
          <leafValues>
            -1.2815392017364502e-01 2.6579803228378296e-01</leafValues></_>
        <_>
          <internalNodes>
            0 -1 426 1.8449297640472651e-03</internalNodes>
          <leafValues>
            4.3514169752597809e-02 -8.2176029682159424e-01</leafValues></_>
        <_>
          <internalNodes>
            0 -1 362 9.1253239661455154e-03</internalNodes>
          <leafValues>
            -1.2094604969024658e-01 2.8578957915306091e-01</leafValues></_>
        <_>
          <internalNodes>
            0 -1 399 -1.6080772038549185e-03</internalNodes>
          <leafValues>
            -7.4450063705444336e-01 4.1552562266588211e-02</leafValues></_>
        <_>
          <internalNodes>
            0 -1 175 -2.1550543606281281e-02</internalNodes>
          <leafValues>
            4.6090269088745117e-01 -7.9285711050033569e-02</leafValues></_>
        <_>
          <internalNodes>
            0 -1 377 -2.1887838840484619e-02</internalNodes>
          <leafValues>
            4.1030266880989075e-01 -8.4561608731746674e-02</leafValues></_>
        <_>
          <internalNodes>
            0 -1 550 2.9405858367681503e-04</internalNodes>
          <leafValues>
            8.6213044822216034e-02 -4.0786853432655334e-01</leafValues></_>
        <_>
          <internalNodes>
            0 -1 553 6.0588237829506397e-04</internalNodes>
          <leafValues>
            6.5335519611835480e-02 -4.4620132446289063e-01</leafValues></_>
        <_>
          <internalNodes>
            0 -1 347 -2.4732525926083326e-03</internalNodes>
          <leafValues>
            2.7822989970445633e-02 -9.7561120986938477e-01</leafValues></_>
        <_>
          <internalNodes>
            0 -1 181 -2.5338596105575562e-01</internalNodes>
          <leafValues>
            -2.6853829622268677e-01 1.0455781966447830e-01</leafValues></_>
        <_>
          <internalNodes>
            0 -1 435 -2.0315421745181084e-02</internalNodes>
          <leafValues>
            5.5412948131561279e-02 -5.9039896726608276e-01</leafValues></_>
        <_>
          <internalNodes>
            0 -1 349 1.7907768487930298e-03</internalNodes>
          <leafValues>
            2.7311924844980240e-02 -8.5009235143661499e-01</leafValues></_>
        <_>
          <internalNodes>
            0 -1 460 -9.8496861755847931e-03</internalNodes>
          <leafValues>
            4.8976820707321167e-01 -7.0555552840232849e-02</leafValues></_>
        <_>
          <internalNodes>
            0 -1 498 -7.0922318845987320e-03</internalNodes>
          <leafValues>
            -7.1984767913818359e-02 4.0469574928283691e-01</leafValues></_>
        <_>
          <internalNodes>
            0 -1 265 1.4128394424915314e-01</internalNodes>
          <leafValues>
            -1.0960213840007782e-01 2.8954368829727173e-01</leafValues></_>
        <_>
          <internalNodes>
            0 -1 64 -4.3189420830458403e-04</internalNodes>
          <leafValues>
            -4.5305380225181580e-01 6.7477680742740631e-02</leafValues></_>
        <_>
          <internalNodes>
            0 -1 106 1.5962874749675393e-04</internalNodes>
          <leafValues>
            1.0130282491445541e-01 -2.6994264125823975e-01</leafValues></_>
        <_>
          <internalNodes>
            0 -1 387 -6.0638897120952606e-03</internalNodes>
          <leafValues>
            2.8465317562222481e-02 -8.7805819511413574e-01</leafValues></_>
        <_>
          <internalNodes>
            0 -1 103 -1.3039397075772285e-02</internalNodes>
          <leafValues>
            2.4298000335693359e-01 -1.1545336991548538e-01</leafValues></_>
        <_>
          <internalNodes>
            0 -1 249 -8.6422462482005358e-04</internalNodes>
          <leafValues>
            1.8616184592247009e-01 -1.5728819370269775e-01</leafValues></_>
        <_>
          <internalNodes>
            0 -1 316 -5.1006726920604706e-02</internalNodes>
          <leafValues>
            3.5035672783851624e-01 -9.0160541236400604e-02</leafValues></_>
        <_>
          <internalNodes>
            0 -1 16 -1.9279551506042480e-01</internalNodes>
          <leafValues>
            -3.5362344980239868e-01 9.0648017823696136e-02</leafValues></_>
        <_>
          <internalNodes>
            0 -1 487 1.9222488626837730e-03</internalNodes>
          <leafValues>
            7.3884770274162292e-02 -4.2656540870666504e-01</leafValues></_>
        <_>
          <internalNodes>
            0 -1 338 1.7551958560943604e-02</internalNodes>
          <leafValues>
            4.9271684139966965e-02 -5.0255548954010010e-01</leafValues></_>
        <_>
          <internalNodes>
            0 -1 549 -2.5202395045198500e-04</internalNodes>
          <leafValues>
            -3.2873558998107910e-01 7.5534909963607788e-02</leafValues></_>
        <_>
          <internalNodes>
            0 -1 52 8.8531617075204849e-03</internalNodes>
          <leafValues>
            -1.5088206529617310e-01 1.9893746078014374e-01</leafValues></_>
        <_>
          <internalNodes>
            0 -1 257 -2.6025790721178055e-03</internalNodes>
          <leafValues>
            2.2125209867954254e-01 -1.2517046928405762e-01</leafValues></_>
        <_>
          <internalNodes>
            0 -1 90 -6.3485324382781982e-02</internalNodes>
          <leafValues>
            5.0945484638214111e-01 -5.7260263711214066e-02</leafValues></_>
        <_>
          <internalNodes>
            0 -1 275 -7.4696785304695368e-04</internalNodes>
          <leafValues>
            2.1042761206626892e-01 -1.3327485322952271e-01</leafValues></_>
        <_>
          <internalNodes>
            0 -1 237 2.4316303431987762e-02</internalNodes>
          <leafValues>
            -8.8960997760295868e-02 3.1240388751029968e-01</leafValues></_>
        <_>
          <internalNodes>
            0 -1 422 -7.0793745107948780e-03</internalNodes>
          <leafValues>
            -6.1576294898986816e-01 4.7336105257272720e-02</leafValues></_>
        <_>
          <internalNodes>
            0 -1 290 1.6073770821094513e-02</internalNodes>
          <leafValues>
            -5.1976669579744339e-02 6.2563967704772949e-01</leafValues></_>
        <_>
          <internalNodes>
            0 -1 84 -2.9597538709640503e-01</internalNodes>
          <leafValues>
            4.1689583659172058e-01 -6.0542698949575424e-02</leafValues></_>
        <_>
          <internalNodes>
            0 -1 108 -1.4974102377891541e-01</internalNodes>
          <leafValues>
            3.2665458321571350e-01 -1.1034870147705078e-01</leafValues></_>
        <_>
          <internalNodes>
            0 -1 325 -1.9328708294779062e-03</internalNodes>
          <leafValues>
            -7.7929013967514038e-01 3.7817165255546570e-02</leafValues></_>
        <_>
          <internalNodes>
            0 -1 143 6.7903492599725723e-03</internalNodes>
          <leafValues>
            -5.9283450245857239e-02 5.1007539033889771e-01</leafValues></_>
        <_>
          <internalNodes>
            0 -1 41 -3.1324797309935093e-03</internalNodes>
          <leafValues>
            1.4443169534206390e-01 -2.1639528870582581e-01</leafValues></_>
        <_>
          <internalNodes>
            0 -1 510 -1.4626677148044109e-03</internalNodes>
          <leafValues>
            -4.8371964693069458e-01 5.8486148715019226e-02</leafValues></_>
        <_>
          <internalNodes>
            0 -1 326 3.3616479486227036e-02</internalNodes>
          <leafValues>
            -1.3538050651550293e-01 2.2735393047332764e-01</leafValues></_>
        <_>
          <internalNodes>
            0 -1 49 -1.1218895018100739e-01</internalNodes>
          <leafValues>
            -7.2684341669082642e-01 4.6516615897417068e-02</leafValues></_>
        <_>
          <internalNodes>
            0 -1 273 -3.2052595634013414e-04</internalNodes>
          <leafValues>
            -3.4060150384902954e-01 7.5228527188301086e-02</leafValues></_>
        <_>
          <internalNodes>
            0 -1 437 -2.4358294904232025e-03</internalNodes>
          <leafValues>
            3.1381514668464661e-01 -1.0295274853706360e-01</leafValues></_>
        <_>
          <internalNodes>
            0 -1 270 5.6746348738670349e-02</internalNodes>
          <leafValues>
            -4.6399720013141632e-02 6.1499500274658203e-01</leafValues></_>
        <_>
          <internalNodes>
            0 -1 337 -2.8215283155441284e-01</internalNodes>
          <leafValues>
            3.9023706316947937e-01 -6.6489808261394501e-02</leafValues></_>
        <_>
          <internalNodes>
            0 -1 150 6.3935585319995880e-02</internalNodes>
          <leafValues>
            -6.6744901239871979e-02 4.4886675477027893e-01</leafValues></_>
        <_>
          <internalNodes>
            0 -1 190 6.5454617142677307e-03</internalNodes>
          <leafValues>
            6.1936475336551666e-02 -4.9786916375160217e-01</leafValues></_>
        <_>
          <internalNodes>
            0 -1 276 1.0426700115203857e-02</internalNodes>
          <leafValues>
            2.5808282196521759e-02 -8.4862416982650757e-01</leafValues></_>
        <_>
          <internalNodes>
            0 -1 358 -1.1669044033624232e-04</internalNodes>
          <leafValues>
            -1.8201538920402527e-01 1.4643472433090210e-01</leafValues></_>
        <_>
          <internalNodes>
            0 -1 398 -2.2904295474290848e-02</internalNodes>
          <leafValues>
            2.7957038953900337e-02 -9.0519702434539795e-01</leafValues></_>
        <_>
          <internalNodes>
            0 -1 414 -1.4766568318009377e-02</internalNodes>
          <leafValues>
            -1.3595294952392578e-01 2.0321142673492432e-01</leafValues></_>
        <_>
          <internalNodes>
            0 -1 394 -3.2962774857878685e-03</internalNodes>
          <leafValues>
            5.3437646478414536e-02 -6.2467718124389648e-01</leafValues></_></weakClassifiers></_>
    <!-- stage 9 -->
    <_>
      <maxWeakCount>55</maxWeakCount>
      <stageThreshold>-1.3121688365936279e+00</stageThreshold>
      <weakClassifiers>
        <_>
          <internalNodes>
            0 -1 110 -8.1190597265958786e-03</internalNodes>
          <leafValues>
            -9.8668885231018066e-01 -5.7337743043899536e-01</leafValues></_>
        <_>
          <internalNodes>
            0 -1 367 -1.1552236974239349e-02</internalNodes>
          <leafValues>
            -9.7502332925796509e-01 -7.9472549259662628e-02</leafValues></_>
        <_>
          <internalNodes>
            0 -1 159 3.0107634142041206e-02</internalNodes>
          <leafValues>
            -2.2340631484985352e-01 2.5775644183158875e-01</leafValues></_>
        <_>
          <internalNodes>
            0 -1 366 -5.5811420083045959e-02</internalNodes>
          <leafValues>
            -9.9505126476287842e-02 4.3424180150032043e-01</leafValues></_>
        <_>
          <internalNodes>
            0 -1 180 -3.4268684685230255e-02</internalNodes>
          <leafValues>
            4.5011244714260101e-02 -8.7966793775558472e-01</leafValues></_>
        <_>
          <internalNodes>
            0 -1 410 -2.0321966148912907e-03</internalNodes>
          <leafValues>
            -8.0943673849105835e-01 4.7065842896699905e-02</leafValues></_>
        <_>
          <internalNodes>
            0 -1 491 4.1511654853820801e-02</internalNodes>
          <leafValues>
            -1.3799628615379333e-01 2.5303530693054199e-01</leafValues></_>
        <_>
          <internalNodes>
            0 -1 466 -3.7755547091364861e-03</internalNodes>
          <leafValues>
            2.1455913782119751e-01 -1.7327952384948730e-01</leafValues></_>
        <_>
          <internalNodes>
            0 -1 149 3.3833317458629608e-02</internalNodes>
          <leafValues>
            -8.7750636041164398e-02 4.6192109584808350e-01</leafValues></_>
        <_>
          <internalNodes>
            0 -1 85 -4.8648016527295113e-03</internalNodes>
          <leafValues>
            -3.7430268526077271e-01 1.1193853616714478e-01</leafValues></_>
        <_>
          <internalNodes>
            0 -1 24 -3.2258216291666031e-02</internalNodes>
          <leafValues>
            2.8111422061920166e-01 -1.2823086977005005e-01</leafValues></_>
        <_>
          <internalNodes>
            0 -1 36 -1.0157267097383738e-03</internalNodes>
          <leafValues>
            -2.2036556899547577e-01 1.6239501535892487e-01</leafValues></_>
        <_>
          <internalNodes>
            0 -1 42 1.4887773431837559e-03</internalNodes>
          <leafValues>
            6.8289987742900848e-02 -5.0947511196136475e-01</leafValues></_>
        <_>
          <internalNodes>
            0 -1 91 -2.5617955252528191e-03</internalNodes>
          <leafValues>
            -1.9895446300506592e-01 1.7031136155128479e-01</leafValues></_>
        <_>
          <internalNodes>
            0 -1 193 -1.0571508109569550e-01</internalNodes>
          <leafValues>
            1.3501264154911041e-01 -2.3041364550590515e-01</leafValues></_>
        <_>
          <internalNodes>
            0 -1 448 -3.7061993032693863e-02</internalNodes>
          <leafValues>
            8.8834464550018311e-02 -3.4575662016868591e-01</leafValues></_>
        <_>
          <internalNodes>
            0 -1 497 -9.1373268514871597e-03</internalNodes>
          <leafValues>
            7.5377398729324341e-01 -3.8678504526615143e-02</leafValues></_>
        <_>
          <internalNodes>
            0 -1 474 2.9633246595039964e-04</internalNodes>
          <leafValues>
            1.8961396813392639e-01 -1.5863758325576782e-01</leafValues></_>
        <_>
          <internalNodes>
            0 -1 444 -4.4714130461215973e-02</internalNodes>
          <leafValues>
            -7.2537980973720551e-02 4.2495298385620117e-01</leafValues></_>
        <_>
          <internalNodes>
            0 -1 411 -2.9944779817014933e-03</internalNodes>
          <leafValues>
            3.8900170475244522e-02 -8.1172323226928711e-01</leafValues></_>
        <_>
          <internalNodes>
            0 -1 311 -3.3778962679207325e-03</internalNodes>
          <leafValues>
            4.4219291210174561e-01 -7.8845165669918060e-02</leafValues></_>
        <_>
          <internalNodes>
            0 -1 272 2.1419455297291279e-03</internalNodes>
          <leafValues>
            -2.3339645564556122e-01 1.3242694735527039e-01</leafValues></_>
        <_>
          <internalNodes>
            0 -1 416 -4.2183938785456121e-04</internalNodes>
          <leafValues>
            2.7991536259651184e-01 -1.1330424249172211e-01</leafValues></_>
        <_>
          <internalNodes>
            0 -1 558 -4.3239793740212917e-04</internalNodes>
          <leafValues>
            -3.7968662381172180e-01 8.3807654678821564e-02</leafValues></_>
        <_>
          <internalNodes>
            0 -1 50 -9.4874382019042969e-02</internalNodes>
          <leafValues>
            4.7695323824882507e-01 -6.4809776842594147e-02</leafValues></_>
        <_>
          <internalNodes>
            0 -1 352 9.0125948190689087e-02</internalNodes>
          <leafValues>
            -1.0561714321374893e-01 3.1740438938140869e-01</leafValues></_>
        <_>
          <internalNodes>
            0 -1 76 2.0776587189175189e-04</internalNodes>
          <leafValues>
            9.3697540462017059e-02 -3.2836192846298218e-01</leafValues></_>
        <_>
          <internalNodes>
            0 -1 559 -1.4812508597970009e-02</internalNodes>
          <leafValues>
            1.1240312457084656e-01 -2.6026609539985657e-01</leafValues></_>
        <_>
          <internalNodes>
            0 -1 330 1.9201759714633226e-03</internalNodes>
          <leafValues>
            3.9799381047487259e-02 -8.5981082916259766e-01</leafValues></_>
        <_>
          <internalNodes>
            0 -1 201 -3.4700665855780244e-04</internalNodes>
          <leafValues>
            2.2626419365406036e-01 -1.3967989385128021e-01</leafValues></_>
        <_>
          <internalNodes>
            0 -1 2 -3.1413756310939789e-02</internalNodes>
          <leafValues>
            -7.3374038934707642e-01 3.5873852670192719e-02</leafValues></_>
        <_>
          <internalNodes>
            0 -1 301 5.5455503752455115e-04</internalNodes>
          <leafValues>
            1.1310074478387833e-01 -2.5181150436401367e-01</leafValues></_>
        <_>
          <internalNodes>
            0 -1 303 -2.4592545814812183e-03</internalNodes>
          <leafValues>
            -5.2453565597534180e-01 5.2195284515619278e-02</leafValues></_>
        <_>
          <internalNodes>
            0 -1 403 -2.8172039310447872e-04</internalNodes>
          <leafValues>
            2.7639806270599365e-01 -9.9522143602371216e-02</leafValues></_>
        <_>
          <internalNodes>
            0 -1 216 -4.0739513933658600e-02</internalNodes>
          <leafValues>
            5.7023525238037109e-01 -5.0254203379154205e-02</leafValues></_>
        <_>
          <internalNodes>
            0 -1 252 -1.6461387276649475e-03</internalNodes>
          <leafValues>
            -1.6888006031513214e-01 1.8478970229625702e-01</leafValues></_>
        <_>
          <internalNodes>
            0 -1 174 -1.6474559903144836e-02</internalNodes>
          <leafValues>
            -9.7586703300476074e-01 2.8193237259984016e-02</leafValues></_>
        <_>
          <internalNodes>
            0 -1 381 -1.2884461320936680e-03</internalNodes>
          <leafValues>
            -5.6964468955993652e-01 4.6304870396852493e-02</leafValues></_>
        <_>
          <internalNodes>
            0 -1 291 -1.7286099027842283e-03</internalNodes>
          <leafValues>
            2.1652485430240631e-01 -1.3364621996879578e-01</leafValues></_>
        <_>
          <internalNodes>
            0 -1 191 -6.2903913203626871e-04</internalNodes>
          <leafValues>
            -5.0106155872344971e-01 5.6564901024103165e-02</leafValues></_>
        <_>
          <internalNodes>
            0 -1 241 -5.1031827926635742e-02</internalNodes>
          <leafValues>
            7.0788782835006714e-01 -4.4399783015251160e-02</leafValues></_>
        <_>
          <internalNodes>
            0 -1 9 -5.9120082855224609e-01</internalNodes>
          <leafValues>
            -9.1685235500335693e-01 3.6976896226406097e-02</leafValues></_>
        <_>
          <internalNodes>
            0 -1 388 7.7691173646599054e-04</internalNodes>
          <leafValues>
            -1.4822235703468323e-01 1.9318474829196930e-01</leafValues></_>
        <_>
          <internalNodes>
            0 -1 389 -1.0572888422757387e-03</internalNodes>
          <leafValues>
            2.3672050237655640e-01 -1.1825579404830933e-01</leafValues></_>
        <_>
          <internalNodes>
            0 -1 176 -4.0187174454331398e-03</internalNodes>
          <leafValues>
            -6.9553655385971069e-01 4.3883323669433594e-02</leafValues></_>
        <_>
          <internalNodes>
            0 -1 405 -4.4563701376318932e-03</internalNodes>
          <leafValues>
            -5.2058565616607666e-01 4.4316746294498444e-02</leafValues></_>
        <_>
          <internalNodes>
            0 -1 289 -8.5530336946249008e-03</internalNodes>
          <leafValues>
            -7.0343303680419922e-01 3.4581199288368225e-02</leafValues></_>
        <_>
          <internalNodes>
            0 -1 552 2.4899091571569443e-02</internalNodes>
          <leafValues>
            2.7893498539924622e-02 -7.8955453634262085e-01</leafValues></_>
        <_>
          <internalNodes>
            0 -1 417 -2.0883195102214813e-02</internalNodes>
          <leafValues>
            4.6751096844673157e-01 -6.5084286034107208e-02</leafValues></_>
        <_>
          <internalNodes>
            0 -1 560 5.0574108026921749e-03</internalNodes>
          <leafValues>
            5.5093176662921906e-02 -5.0839626789093018e-01</leafValues></_>
        <_>
          <internalNodes>
            0 -1 97 -4.2392574250698090e-02</internalNodes>
          <leafValues>
            5.5052238702774048e-01 -5.4356455802917480e-02</leafValues></_>
        <_>
          <internalNodes>
            0 -1 319 4.9434872344136238e-03</internalNodes>
          <leafValues>
            3.8091566413640976e-02 -7.8631716966629028e-01</leafValues></_>
        <_>
          <internalNodes>
            0 -1 30 -2.0181638002395630e-01</internalNodes>
          <leafValues>
            -8.1067502498626709e-01 2.7432387694716454e-02</leafValues></_>
        <_>
          <internalNodes>
            0 -1 374 1.1124410666525364e-03</internalNodes>
          <leafValues>
            4.1497960686683655e-02 -5.3800123929977417e-01</leafValues></_>
        <_>
          <internalNodes>
            0 -1 505 -1.9614098127931356e-03</internalNodes>
          <leafValues>
            4.6135085821151733e-01 -6.5038740634918213e-02</leafValues></_></weakClassifiers></_>
    <!-- stage 10 -->
    <_>
      <maxWeakCount>69</maxWeakCount>
      <stageThreshold>-1.3655585050582886e+00</stageThreshold>
      <weakClassifiers>
        <_>
          <internalNodes>
            0 -1 226 -9.2855736613273621e-02</internalNodes>
          <leafValues>
            -7.1920216083526611e-01 -3.0453562736511230e-01</leafValues></_>
        <_>
          <internalNodes>
            0 -1 7 -7.4866265058517456e-02</internalNodes>
          <leafValues>
            5.9796560555696487e-02 -3.4030482172966003e-01</leafValues></_>
        <_>
          <internalNodes>
            0 -1 156 5.6555168703198433e-04</internalNodes>
          <leafValues>
            -3.8520756363868713e-01 1.0257110744714737e-01</leafValues></_>
        <_>
          <internalNodes>
            0 -1 473 2.7319207787513733e-02</internalNodes>
          <leafValues>
            -8.7192319333553314e-02 4.1173449158668518e-01</leafValues></_>
        <_>
          <internalNodes>
            0 -1 324 -4.4663944281637669e-03</internalNodes>
          <leafValues>
            2.4655425548553467e-01 -1.0638378560543060e-01</leafValues></_>
        <_>
          <internalNodes>
            0 -1 82 -3.0658222734928131e-02</internalNodes>
          <leafValues>
            4.7186791896820068e-02 -6.1614096164703369e-01</leafValues></_>
        <_>
          <internalNodes>
            0 -1 531 1.6000259667634964e-02</internalNodes>
          <leafValues>
            -7.5559921562671661e-02 5.5541974306106567e-01</leafValues></_>
        <_>
          <internalNodes>
            0 -1 93 1.0101125575602055e-02</internalNodes>
          <leafValues>
            -1.9693034887313843e-01 1.5056681632995605e-01</leafValues></_>
        <_>
          <internalNodes>
            0 -1 537 2.2812873066868633e-04</internalNodes>
          <leafValues>
            1.5776264667510986e-01 -1.9212988018989563e-01</leafValues></_>
        <_>
          <internalNodes>
            0 -1 198 9.2138126492500305e-03</internalNodes>
          <leafValues>
            -9.7443796694278717e-02 3.2322403788566589e-01</leafValues></_>
        <_>
          <internalNodes>
            0 -1 101 1.1575993150472641e-02</internalNodes>
          <leafValues>
            6.5307684242725372e-02 -4.6201193332672119e-01</leafValues></_>
        <_>
          <internalNodes>
            0 -1 46 1.5487825870513916e-01</internalNodes>
          <leafValues>
            3.1310696154832840e-02 -7.3043096065521240e-01</leafValues></_>
        <_>
          <internalNodes>
            0 -1 395 8.0174440518021584e-03</internalNodes>
          <leafValues>
            4.2021758854389191e-02 -5.5894321203231812e-01</leafValues></_>
        <_>
          <internalNodes>
            0 -1 204 -4.4344982597976923e-04</internalNodes>
          <leafValues>
            2.6615902781486511e-01 -1.0258297622203827e-01</leafValues></_>
        <_>
          <internalNodes>
            0 -1 251 -3.9514072239398956e-02</internalNodes>
          <leafValues>
            -6.9263106584548950e-01 4.1046801954507828e-02</leafValues></_>
        <_>
          <internalNodes>
            0 -1 503 1.1140895367134362e-04</internalNodes>
          <leafValues>
            -2.0259666442871094e-01 1.3233223557472229e-01</leafValues></_>
        <_>
          <internalNodes>
            0 -1 33 -1.6213718801736832e-02</internalNodes>
          <leafValues>
            5.6861007213592529e-01 -5.1721785217523575e-02</leafValues></_>
        <_>
          <internalNodes>
            0 -1 221 -1.2354579754173756e-02</internalNodes>
          <leafValues>
            3.0673894286155701e-01 -8.6679391562938690e-02</leafValues></_>
        <_>
          <internalNodes>
            0 -1 87 3.7680706009268761e-04</internalNodes>
          <leafValues>
            -1.4047199487686157e-01 1.9297274947166443e-01</leafValues></_>
        <_>
          <internalNodes>
            0 -1 102 -2.9292732942849398e-03</internalNodes>
          <leafValues>
            -4.4270253181457520e-01 6.3181184232234955e-02</leafValues></_>
        <_>
          <internalNodes>
            0 -1 501 1.8459465354681015e-03</internalNodes>
          <leafValues>
            8.1539914011955261e-02 -3.1923356652259827e-01</leafValues></_>
        <_>
          <internalNodes>
            0 -1 284 -2.3336071521043777e-02</internalNodes>
          <leafValues>
            -2.6580855250358582e-01 1.0496557503938675e-01</leafValues></_>
        <_>
          <internalNodes>
            0 -1 170 9.7267478704452515e-02</internalNodes>
          <leafValues>
            6.0896106064319611e-02 -4.6824452280998230e-01</leafValues></_>
        <_>
          <internalNodes>
            0 -1 315 7.6473429799079895e-02</internalNodes>
          <leafValues>
            -4.1373852640390396e-02 7.5038802623748779e-01</leafValues></_>
        <_>
          <internalNodes>
            0 -1 147 2.2007869556546211e-03</internalNodes>
          <leafValues>
            6.7689016461372375e-02 -4.3531665205955505e-01</leafValues></_>
        <_>
          <internalNodes>
            0 -1 245 -1.2280190736055374e-01</internalNodes>
          <leafValues>
            -3.2689389586448669e-01 8.2155600190162659e-02</leafValues></_>
        <_>
          <internalNodes>
            0 -1 146 -1.4039431512355804e-01</internalNodes>
          <leafValues>
            3.9210177958011627e-02 -7.3539209365844727e-01</leafValues></_>
        <_>
          <internalNodes>
            0 -1 446 -8.2591146929189563e-04</internalNodes>
          <leafValues>
            3.1745013594627380e-01 -9.4348572194576263e-02</leafValues></_>
        <_>
          <internalNodes>
            0 -1 132 -9.6966112032532692e-03</internalNodes>
          <leafValues>
            -3.5159319639205933e-01 8.1371247768402100e-02</leafValues></_>
        <_>
          <internalNodes>
            0 -1 115 -3.5865250974893570e-02</internalNodes>
          <leafValues>
            -5.5722820758819580e-01 4.4999849051237106e-02</leafValues></_>
        <_>
          <internalNodes>
            0 -1 13 3.2102227210998535e-02</internalNodes>
          <leafValues>
            4.8151291906833649e-02 -4.8491543531417847e-01</leafValues></_>
        <_>
          <internalNodes>
            0 -1 320 5.0143618136644363e-03</internalNodes>
          <leafValues>
            3.9606589823961258e-02 -6.0308408737182617e-01</leafValues></_>
        <_>
          <internalNodes>
            0 -1 138 -2.4953715503215790e-02</internalNodes>
          <leafValues>
            5.8079767227172852e-01 -4.7795973718166351e-02</leafValues></_>
        <_>
          <internalNodes>
            0 -1 279 6.4266147091984749e-03</internalNodes>
          <leafValues>
            -3.4230705350637436e-02 6.9108718633651733e-01</leafValues></_>
        <_>
          <internalNodes>
            0 -1 372 4.1273750364780426e-02</internalNodes>
          <leafValues>
            4.2012352496385574e-02 -6.2277495861053467e-01</leafValues></_>
        <_>
          <internalNodes>
            0 -1 427 4.7979708760976791e-02</internalNodes>
          <leafValues>
            -2.4569302797317505e-01 1.0645318031311035e-01</leafValues></_>
        <_>
          <internalNodes>
            0 -1 481 -4.4916882179677486e-03</internalNodes>
          <leafValues>
            4.1194495558738708e-01 -7.6145805418491364e-02</leafValues></_>
        <_>
          <internalNodes>
            0 -1 263 3.9482217282056808e-02</internalNodes>
          <leafValues>
            -8.3988629281520844e-02 2.9285186529159546e-01</leafValues></_>
        <_>
          <internalNodes>
            0 -1 189 -4.1844628867693245e-05</internalNodes>
          <leafValues>
            2.1388193964958191e-01 -1.2933963537216187e-01</leafValues></_>
        <_>
          <internalNodes>
            0 -1 222 -3.6919821053743362e-02</internalNodes>
          <leafValues>
            4.5945015549659729e-01 -5.6664627045392990e-02</leafValues></_>
        <_>
          <internalNodes>
            0 -1 109 -1.1800514161586761e-01</internalNodes>
          <leafValues>
            -8.1862732768058777e-02 3.2181957364082336e-01</leafValues></_>
        <_>
          <internalNodes>
            0 -1 62 -4.1956812143325806e-01</internalNodes>
          <leafValues>
            2.7533480525016785e-01 -1.0261167585849762e-01</leafValues></_>
        <_>
          <internalNodes>
            0 -1 239 -3.0783496797084808e-02</internalNodes>
          <leafValues>
            5.8221417665481567e-01 -4.7762684524059296e-02</leafValues></_>
        <_>
          <internalNodes>
            0 -1 232 -3.0793957412242889e-03</internalNodes>
          <leafValues>
            2.5989910960197449e-01 -1.0634690523147583e-01</leafValues></_>
        <_>
          <internalNodes>
            0 -1 203 4.5030511915683746e-02</internalNodes>
          <leafValues>
            -1.5058261156082153e-01 1.7442311346530914e-01</leafValues></_>
        <_>
          <internalNodes>
            0 -1 343 -1.7111367778852582e-03</internalNodes>
          <leafValues>
            2.5333568453788757e-01 -1.0215499997138977e-01</leafValues></_>
        <_>
          <internalNodes>
            0 -1 167 -5.4720409214496613e-02</internalNodes>
          <leafValues>
            3.2235550880432129e-01 -8.1699028611183167e-02</leafValues></_>
        <_>
          <internalNodes>
            0 -1 393 4.6136848628520966e-02</internalNodes>
          <leafValues>
            -2.9344478249549866e-01 8.9731678366661072e-02</leafValues></_>
        <_>
          <internalNodes>
            0 -1 433 -1.0261162242386490e-04</internalNodes>
          <leafValues>
            1.9925257563591003e-01 -1.4742575585842133e-01</leafValues></_>
        <_>
          <internalNodes>
            0 -1 359 -1.5492884442210197e-02</internalNodes>
          <leafValues>
            4.0969833731651306e-02 -6.3859045505523682e-01</leafValues></_>
        <_>
          <internalNodes>
            0 -1 27 9.9867451936006546e-03</internalNodes>
          <leafValues>
            -8.5143238306045532e-02 3.3060923218727112e-01</leafValues></_>
        <_>
          <internalNodes>
            0 -1 368 -3.3943094313144684e-02</internalNodes>
          <leafValues>
            -6.8711251020431519e-02 3.6990514397621155e-01</leafValues></_>
        <_>
          <internalNodes>
            0 -1 519 -5.6706723989918828e-04</internalNodes>
          <leafValues>
            -4.2053979635238647e-01 6.5200746059417725e-02</leafValues></_>
        <_>
          <internalNodes>
            0 -1 454 -7.9232873395085335e-03</internalNodes>
          <leafValues>
            4.8254776746034622e-02 -5.1915371417999268e-01</leafValues></_>
        <_>
          <internalNodes>
            0 -1 254 -1.5450494829565287e-03</internalNodes>
          <leafValues>
            1.8037509918212891e-01 -1.4499884843826294e-01</leafValues></_>
        <_>
          <internalNodes>
            0 -1 499 7.5707728683482856e-05</internalNodes>
          <leafValues>
            1.4117081463336945e-01 -1.9345267117023468e-01</leafValues></_>
        <_>
          <internalNodes>
            0 -1 317 2.0587530452758074e-03</internalNodes>
          <leafValues>
            2.7788845822215080e-02 -8.7466943264007568e-01</leafValues></_>
        <_>
          <internalNodes>
            0 -1 135 -1.3220887631177902e-02</internalNodes>
          <leafValues>
            5.9253907203674316e-01 -4.9230612814426422e-02</leafValues></_>
        <_>
          <internalNodes>
            0 -1 68 1.3623943086713552e-03</internalNodes>
          <leafValues>
            3.5158045589923859e-02 -9.0693908929824829e-01</leafValues></_>
        <_>
          <internalNodes>
            0 -1 514 -2.6578139513731003e-03</internalNodes>
          <leafValues>
