<?xml version="1.0"?>
<opencv_storage>
<stage8>
  <maxWeakCount>61</maxWeakCount>
  <stageThreshold>-1.4164762496948242e+00</stageThreshold>
  <weakClassifiers>
    <_>
      <internalNodes>
        0 -1 112994 -2.8469145298004150e-02</internalNodes>
      <leafValues>
        -7.4031889438629150e-01 -4.3030303716659546e-01</leafValues></_>
    <_>
      <internalNodes>
        0 -1 161084 -2.4736508727073669e-02</internalNodes>
      <leafValues>
        -4.3891984969377518e-02 -5.5847007036209106e-01</leafValues></_>
    <_>
      <internalNodes>
        0 -1 119884 2.1653543226420879e-03</internalNodes>
      <leafValues>
        3.1978733837604523e-02 -9.5546871423721313e-01</leafValues></_>
    <_>
      <internalNodes>
        0 -1 12536 -1.1594812385737896e-02</internalNodes>
      <leafValues>
        8.3228193223476410e-02 -4.7250115871429443e-01</leafValues></_>
    <_>
      <internalNodes>
        0 -1 37546 -1.2190352380275726e-01</internalNodes>
      <leafValues>
        -8.9692376554012299e-02 4.7551628947257996e-01</leafValues></_>
    <_>
      <internalNodes>
        0 -1 162089 -3.1599658541381359e-04</internalNodes>
      <leafValues>
        -4.2112866044044495e-01 9.7910083830356598e-02</leafValues></_>
    <_>
      <internalNodes>
        0 -1 121332 9.9048856645822525e-03</internalNodes>
      <leafValues>
        -1.0215793550014496e-01 3.7322610616683960e-01</leafValues></_>
    <_>
      <internalNodes>
        0 -1 118522 6.2795437872409821e-02</internalNodes>
      <leafValues>
        -1.2957468628883362e-01 2.6626747846603394e-01</leafValues></_>
    <_>
      <internalNodes>
        0 -1 159741 -6.7587237572297454e-04</internalNodes>
      <leafValues>
        -3.9923104643821716e-01 9.4959676265716553e-02</leafValues></_>
    <_>
      <internalNodes>
        0 -1 3136 -1.9273607176728547e-04</internalNodes>
      <leafValues>
        -3.3846366405487061e-01 1.0722623020410538e-01</leafValues></_>
    <_>
      <internalNodes>
        0 -1 47911 7.0967581123113632e-03</internalNodes>
      <leafValues>
        -1.2815392017364502e-01 2.6579803228378296e-01</leafValues></_>
    <_>
      <internalNodes>
        0 -1 137365 1.8449297640472651e-03</internalNodes>
      <leafValues>
        4.3514169752597809e-02 -8.2176029682159424e-01</leafValues></_>
    <_>
      <internalNodes>
        0 -1 114795 9.1253239661455154e-03</internalNodes>
      <leafValues>
        -1.2094604969024658e-01 2.8578957915306091e-01</leafValues></_>
    <_>
      <internalNodes>
        0 -1 126864 -1.6080772038549185e-03</internalNodes>
      <leafValues>
        -7.4450063705444336e-01 4.1552562266588211e-02</leafValues></_>
    <_>
      <internalNodes>
        0 -1 56759 -2.1550543606281281e-02</internalNodes>
      <leafValues>
        4.6090269088745117e-01 -7.9285711050033569e-02</leafValues></_>
    <_>
      <internalNodes>
        0 -1 120654 -2.1887838840484619e-02</internalNodes>
      <leafValues>
        4.1030266880989075e-01 -8.4561608731746674e-02</leafValues></_>
    <_>
      <internalNodes>
        0 -1 162099 2.9405858367681503e-04</internalNodes>
      <leafValues>
        8.6213044822216034e-02 -4.0786853432655334e-01</leafValues></_>
    <_>
      <internalNodes>
        0 -1 162138 6.0588237829506397e-04</internalNodes>
      <leafValues>
        6.5335519611835480e-02 -4.4620132446289063e-01</leafValues></_>
    <_>
      <internalNodes>
        0 -1 111428 -2.4732525926083326e-03</internalNodes>
      <leafValues>
        2.7822989970445633e-02 -9.7561120986938477e-01</leafValues></_>
    <_>
      <internalNodes>
        0 -1 58664 -2.5338596105575562e-01</internalNodes>
      <leafValues>
        -2.6853829622268677e-01 1.0455781966447830e-01</leafValues></_>
    <_>
      <internalNodes>
        0 -1 140027 -2.0315421745181084e-02</internalNodes>
      <leafValues>
        5.5412948131561279e-02 -5.9039896726608276e-01</leafValues></_>
    <_>
      <internalNodes>
        0 -1 112808 1.7907768487930298e-03</internalNodes>
      <leafValues>
        2.7311924844980240e-02 -8.5009235143661499e-01</leafValues></_>
    <_>
      <internalNodes>
        0 -1 146399 -9.8496861755847931e-03</internalNodes>
      <leafValues>
        4.8976820707321167e-01 -7.0555552840232849e-02</leafValues></_>
    <_>
      <internalNodes>
        0 -1 154763 -7.0922318845987320e-03</internalNodes>
      <leafValues>
        -7.1984767913818359e-02 4.0469574928283691e-01</leafValues></_>
    <_>
      <internalNodes>
        0 -1 88153 1.4128394424915314e-01</internalNodes>
      <leafValues>
        -1.0960213840007782e-01 2.8954368829727173e-01</leafValues></_>
    <_>
      <internalNodes>
        0 -1 13004 -4.3189420830458403e-04</internalNodes>
      <leafValues>
        -4.5305380225181580e-01 6.7477680742740631e-02</leafValues></_>
    <_>
      <internalNodes>
        0 -1 29518 1.5962874749675393e-04</internalNodes>
      <leafValues>
        1.0130282491445541e-01 -2.6994264125823975e-01</leafValues></_>
    <_>
      <internalNodes>
        0 -1 123901 -6.0638897120952606e-03</internalNodes>
      <leafValues>
        2.8465317562222481e-02 -8.7805819511413574e-01</leafValues></_>
    <_>
      <internalNodes>
        0 -1 26922 -1.3039397075772285e-02</internalNodes>
      <leafValues>
        2.4298000335693359e-01 -1.1545336991548538e-01</leafValues></_>
    <_>
      <internalNodes>
        0 -1 82911 -8.6422462482005358e-04</internalNodes>
      <leafValues>
        1.8616184592247009e-01 -1.5728819370269775e-01</leafValues></_>
    <_>
      <internalNodes>
        0 -1 102495 -5.1006726920604706e-02</internalNodes>
      <leafValues>
        3.5035672783851624e-01 -9.0160541236400604e-02</leafValues></_>
    <_>
      <internalNodes>
        0 -1 858 -1.9279551506042480e-01</internalNodes>
      <leafValues>
        -3.5362344980239868e-01 9.0648017823696136e-02</leafValues></_>
    <_>
      <internalNodes>
        0 -1 152044 1.9222488626837730e-03</internalNodes>
      <leafValues>
        7.3884770274162292e-02 -4.2656540870666504e-01</leafValues></_>
    <_>
      <internalNodes>
        0 -1 107550 1.7551958560943604e-02</internalNodes>
      <leafValues>
        4.9271684139966965e-02 -5.0255548954010010e-01</leafValues></_>
    <_>
      <internalNodes>
        0 -1 162096 -2.5202395045198500e-04</internalNodes>
      <leafValues>
        -3.2873558998107910e-01 7.5534909963607788e-02</leafValues></_>
    <_>
      <internalNodes>
        0 -1 10648 8.8531617075204849e-03</internalNodes>
      <leafValues>
        -1.5088206529617310e-01 1.9893746078014374e-01</leafValues></_>
    <_>
      <internalNodes>
        0 -1 87242 -2.6025790721178055e-03</internalNodes>
      <leafValues>
        2.2125209867954254e-01 -1.2517046928405762e-01</leafValues></_>
    <_>
      <internalNodes>
        0 -1 24230 -6.3485324382781982e-02</internalNodes>
      <leafValues>
        5.0945484638214111e-01 -5.7260263711214066e-02</leafValues></_>
    <_>
      <internalNodes>
        0 -1 89843 -7.4696785304695368e-04</internalNodes>
      <leafValues>
        2.1042761206626892e-01 -1.3327485322952271e-01</leafValues></_>
    <_>
      <internalNodes>
        0 -1 79991 2.4316303431987762e-02</internalNodes>
      <leafValues>
        -8.8960997760295868e-02 3.1240388751029968e-01</leafValues></_>
    <_>
      <internalNodes>
        0 -1 135829 -7.0793745107948780e-03</internalNodes>
      <leafValues>
        -6.1576294898986816e-01 4.7336105257272720e-02</leafValues></_>
    <_>
      <internalNodes>
        0 -1 96289 1.6073770821094513e-02</internalNodes>
      <leafValues>
        -5.1976669579744339e-02 6.2563967704772949e-01</leafValues></_>
    <_>
      <internalNodes>
        0 -1 21311 -2.9597538709640503e-01</internalNodes>
      <leafValues>
        4.1689583659172058e-01 -6.0542698949575424e-02</leafValues></_>
    <_>
      <internalNodes>
        0 -1 30096 -1.4974102377891541e-01</internalNodes>
      <leafValues>
        3.2665458321571350e-01 -1.1034870147705078e-01</leafValues></_>
    <_>
      <internalNodes>
        0 -1 104746 -1.9328708294779062e-03</internalNodes>
      <leafValues>
        -7.7929013967514038e-01 3.7817165255546570e-02</leafValues></_>
    <_>
      <internalNodes>
        0 -1 43863 6.7903492599725723e-03</internalNodes>
      <leafValues>
        -5.9283450245857239e-02 5.1007539033889771e-01</leafValues></_>
    <_>
      <internalNodes>
        0 -1 7620 -3.1324797309935093e-03</internalNodes>
      <leafValues>
        1.4443169534206390e-01 -2.1639528870582581e-01</leafValues></_>
    <_>
      <internalNodes>
        0 -1 157851 -1.4626677148044109e-03</internalNodes>
      <leafValues>
        -4.8371964693069458e-01 5.8486148715019226e-02</leafValues></_>
    <_>
      <internalNodes>
        0 -1 104985 3.3616479486227036e-02</internalNodes>
      <leafValues>
        -1.3538050651550293e-01 2.2735393047332764e-01</leafValues></_>
    <_>
      <internalNodes>
        0 -1 9954 -1.1218895018100739e-01</internalNodes>
      <leafValues>
        -7.2684341669082642e-01 4.6516615897417068e-02</leafValues></_>
    <_>
      <internalNodes>
        0 -1 89811 -3.2052595634013414e-04</internalNodes>
      <leafValues>
        -3.4060150384902954e-01 7.5228527188301086e-02</leafValues></_>
    <_>
      <internalNodes>
        0 -1 140437 -2.4358294904232025e-03</internalNodes>
      <leafValues>
        3.1381514668464661e-01 -1.0295274853706360e-01</leafValues></_>
    <_>
      <internalNodes>
        0 -1 89365 5.6746348738670349e-02</internalNodes>
      <leafValues>
        -4.6399720013141632e-02 6.1499500274658203e-01</leafValues></_>
    <_>
      <internalNodes>
        0 -1 107367 -2.8215283155441284e-01</internalNodes>
      <leafValues>
        3.9023706316947937e-01 -6.6489808261394501e-02</leafValues></_>
    <_>
      <internalNodes>
        0 -1 48032 6.3935585319995880e-02</internalNodes>
      <leafValues>
        -6.6744901239871979e-02 4.4886675477027893e-01</leafValues></_>
    <_>
      <internalNodes>
        0 -1 60428 6.5454617142677307e-03</internalNodes>
      <leafValues>
        6.1936475336551666e-02 -4.9786916375160217e-01</leafValues></_>
    <_>
      <internalNodes>
        0 -1 89863 1.0426700115203857e-02</internalNodes>
      <leafValues>
        2.5808282196521759e-02 -8.4862416982650757e-01</leafValues></_>
    <_>
      <internalNodes>
        0 -1 114295 -1.1669044033624232e-04</internalNodes>
      <leafValues>
        -1.8201538920402527e-01 1.4643472433090210e-01</leafValues></_>
    <_>
      <internalNodes>
        0 -1 126736 -2.2904295474290848e-02</internalNodes>
      <leafValues>
        2.7957038953900337e-02 -9.0519702434539795e-01</leafValues></_>
    <_>
      <internalNodes>
        0 -1 131616 -1.4766568318009377e-02</internalNodes>
      <leafValues>
        -1.3595294952392578e-01 2.0321142673492432e-01</leafValues></_>
    <_>
      <internalNodes>
        0 -1 125414 -3.2962774857878685e-03</internalNodes>
      <leafValues>
        5.3437646478414536e-02 -6.2467718124389648e-01</leafValues></_></weakClassifiers></stage8>
</opencv_storage>
